<?xml version="1.0"?>
<opencv_storage>
<my_svm type_id="opencv-ml-svm">
  <svm_type>C_SVC</svm_type>
  <kernel><type>LINEAR</type></kernel>
  <C>1.</C>
  <term_criteria><epsilon>1.1920928955078125e-007</epsilon>
    <iterations>1000</iterations></term_criteria>
  <var_all>30000</var_all>
  <var_count>30000</var_count>
  <class_count>2</class_count>
  <class_labels type_id="opencv-matrix">
    <rows>1</rows>
    <cols>2</cols>
    <dt>i</dt>
    <data>
      0 1</data></class_labels>
  <sv_total>1</sv_total>
  <support_vectors>
    <_>
      -2.06405777e-004 -2.01798117e-004 -1.98070135e-004
      -1.74608227e-004 -1.12647089e-004 -1.18230935e-004
      -1.37174313e-004 -9.64478604e-005 -1.71194799e-004
      -2.22465344e-004 -1.92188585e-004 -2.20974282e-004
      -2.84740701e-004 -2.97071791e-004 -2.98518251e-004
      -4.53350920e-004 -5.54848637e-004 -6.16807258e-004
      -1.06834213e-003 -1.25039055e-003 -1.35321962e-003
      -9.19375510e-004 -8.15321284e-004 -7.23872159e-004
      -7.56239053e-004 -7.26133061e-004 -7.70211918e-004
      -7.91668775e-004 -7.91993283e-004 -8.48023163e-004
      -8.79568048e-004 -8.45635717e-004 -8.71162105e-004
      -8.95152451e-004 -9.09056165e-004 -8.77054234e-004
      -9.50870162e-004 -1.05635170e-003 -1.37262628e-003
      -1.48350617e-003 -1.43369264e-003 -1.05212873e-003
      -8.91822972e-004 -1.00962201e-003 -1.09138666e-003
      -1.09234452e-003 -1.05627568e-003 -1.18211226e-003
      -1.76793756e-003 -1.26885122e-003 -1.19692786e-003
      -1.80694892e-003 -1.80596206e-003 -1.43385364e-003
      -1.23350951e-003 -5.02643990e-004 -1.15348422e-003
      -1.19689365e-004 -1.30679808e-003 -1.08686590e-003
      -1.16591912e-003 -1.07517326e-003 -6.81549718e-004
      -4.06352119e-005 7.85456505e-005 -1.16628826e-005 -5.86170099e-005
      -1.23908365e-004 -4.89542552e-004 -7.72107218e-004
      -6.19675731e-004 -8.08998244e-004 -8.62504297e-004
      -8.99334496e-004 -1.02335168e-003 -3.39696562e-004
      -6.56672171e-004 -5.31063532e-004 -1.38055562e-004
      -1.95919813e-004 -2.94968922e-004 -5.96030790e-004
      -5.75830578e-004 3.58011777e-004 2.33551211e-004 1.99128830e-004
      2.94900063e-004 1.61685457e-004 -1.23800375e-004 4.05053288e-004
      1.14668917e-003 1.12815783e-003 9.08559188e-004 5.23548748e-004
      -1.24578495e-004 1.55574904e-004 -1.95753979e-004 -5.37244450e-005
      -1.55258007e-004 -6.04872359e-004 -1.04218931e-003
      -4.29595530e-004 -5.04199881e-004 1.92154184e-004 2.09612554e-004
      9.11864408e-005 -5.94895508e-004 -5.89930860e-004 -3.42938321e-004
      1.24445010e-004 3.12054006e-004 -6.74148498e-004 -1.87116151e-003
      -3.80819838e-004 9.12211035e-005 2.84148380e-004 9.24317355e-005
      -2.75908213e-004 2.17400884e-004 -1.80706265e-004 -1.24422077e-004
      -1.93117521e-004 -3.45274515e-004 -2.21253242e-004
      -5.47209092e-005 -3.54723925e-005 1.14576345e-004 3.24940811e-005
      -1.19318785e-004 -7.97849672e-004 8.62549132e-005 -1.34931892e-004
      -1.91267565e-004 -2.97936262e-004 -7.27814477e-005
      -3.12627002e-004 -1.01437932e-003 -1.99708607e-004
      -1.59839710e-005 -3.78880184e-004 -8.31325189e-004
      -6.78747077e-004 -3.56305944e-004 -4.12060850e-004
      -9.54997900e-004 -6.01456908e-004 -6.76301541e-004
      -2.68273056e-004 -4.36064962e-004 -7.77197711e-004
      -6.60095713e-004 -6.98039017e-004 -7.65260134e-004
      -7.31846027e-004 -8.80887732e-004 -1.10116310e-003
      -1.00334291e-003 -1.11236004e-003 -1.28183956e-003
      -8.82187276e-004 -9.14475007e-004 -5.66406699e-004
      -6.66853040e-004 -5.53439022e-004 -8.08827986e-004
      -7.43584242e-004 -8.60250730e-004 -9.12815100e-004
      -1.41418760e-003 -1.41193299e-003 -1.41925714e-003
      -1.20831712e-003 -1.32987963e-003 -1.33224332e-003
      -1.28402119e-003 -1.30448956e-003 -1.27352343e-003
      -1.23545760e-003 -1.24030421e-003 -1.22808549e-003
      -1.18595047e-003 -1.24162517e-003 -1.29503442e-003
      -1.26347016e-003 -1.28989783e-003 -1.26701058e-003
      -1.26281695e-003 -1.21435826e-003 -1.22450630e-003
      -1.27621926e-003 -1.27056881e-003 -1.23926124e-003
      -1.16907875e-003 -1.22163969e-003 -1.22877001e-003
      -1.17578183e-003 -1.18913164e-003 -1.18252926e-003
      -1.15779170e-003 -1.10217254e-003 -2.62418798e-005
      -1.18391625e-004 -9.01982421e-005 1.39752856e-005 -2.51559195e-005
      -2.10350245e-005 -2.86673312e-005 -7.87644676e-005
      -1.33527719e-004 -1.50772132e-004 -1.62875804e-004
      -2.37997927e-004 -2.22590199e-004 -1.19384793e-004
      -1.98403257e-004 -2.42136346e-004 -2.68294127e-004
      -3.89836176e-004 -7.87123921e-004 -1.15134299e-003
      -1.20219833e-003 -8.00002948e-004 -6.15547469e-004
      -5.91432094e-004 -5.30089077e-004 -5.23333903e-004
      -5.38390246e-004 -5.27911354e-004 -4.85344266e-004
      -5.42632537e-004 -4.97659901e-004 -4.57732531e-004
      -4.63711098e-004 -4.47320839e-004 -4.44895675e-004
      -4.79433947e-004 -4.90203209e-004 -6.00322208e-004
      -9.41131439e-004 -1.13988330e-003 -1.07095088e-003
      -7.61643285e-004 -7.38052709e-004 -6.28518872e-004
      -4.36658127e-004 -7.34711182e-004 -7.69661623e-004
      -8.43117305e-004 -1.25485228e-003 -1.10054889e-003
      -1.06454024e-003 -6.72037422e-004 -7.61991425e-004
      -1.12727506e-003 -1.67109375e-003 -8.80700944e-004
      -8.63113266e-004 -8.91522563e-004 -5.11019665e-004
      -2.13669403e-003 -1.49688649e-003 -1.17102801e-003
      -3.64769250e-004 -9.58426390e-005 2.32620092e-004 -1.57169980e-005
      7.96402383e-005 5.02318799e-005 -1.58524062e-006 -5.71480952e-004
      -6.72848022e-004 -8.06170632e-004 -1.19803788e-003
      -1.06826553e-003 -1.28684181e-003 -9.54303949e-004
      -3.03647685e-004 1.14959170e-004 4.79724462e-004 8.32619437e-004
      9.16500576e-004 2.15407184e-004 1.36206232e-004 6.84358121e-004
      6.32255455e-004 5.16554748e-004 4.71909385e-004 4.10168839e-004
      2.16172339e-005 5.19131951e-004 7.80028466e-004 2.48066179e-004
      2.82666617e-004 -1.73712397e-004 1.35715818e-004 -7.36232760e-005
      -8.85060406e-004 -6.76600263e-004 -5.88212220e-004
      -1.04945083e-003 -1.61053007e-003 -1.71719363e-003
      -1.32315047e-003 -1.26645912e-003 5.73878515e-006 4.47064638e-004
      -5.87514078e-004 -1.27494370e-003 -7.77448004e-004
      -7.93633590e-005 -4.11929417e-004 -7.25759426e-004
      -7.30643515e-004 -5.40327455e-004 4.74849163e-004 4.36162256e-004
      -2.62906076e-004 -2.32818216e-004 -3.03181732e-004
      -7.50890540e-005 -1.83863231e-004 -1.15998657e-004
      -3.98554432e-004 -4.64801764e-004 -4.81640163e-004
      -6.96053321e-005 -4.62815282e-004 5.67069292e-005 8.32099686e-005
      -6.40266284e-004 -3.58758611e-004 -2.13021398e-004
      -2.98263622e-004 -4.29920212e-004 -3.15538142e-004
      -3.77995893e-004 -8.28816730e-004 -9.24385851e-004
      -4.29421751e-004 2.02164971e-004 -1.83166689e-004 -9.44199681e-004
      -4.19120479e-004 -4.55128495e-004 -8.32378981e-004
      -8.91653995e-004 -9.33700881e-004 -4.64642217e-004
      -4.83277108e-004 -6.32571231e-004 -9.41139413e-004
      -5.66674746e-004 -4.29548149e-004 -4.70619561e-004
      -5.27343480e-004 -6.27914153e-004 -8.28770746e-004
      -6.49275549e-004 -7.84937642e-004 -9.61754820e-004
      -7.29812484e-004 -1.10957085e-003 -7.01895100e-004
      -4.18434996e-004 -5.11906284e-004 -5.51616773e-004
      -4.71158681e-004 -7.36788963e-004 -7.60667084e-004
      -1.25157333e-003 -1.34161941e-003 -1.27175020e-003
      -1.19548372e-003 -1.32006197e-003 -1.26711559e-003
      -1.22571003e-003 -1.19155261e-003 -1.18853070e-003
      -1.14948163e-003 -1.23518985e-003 -1.17398286e-003
      -1.20741245e-003 -1.23458821e-003 -1.23074104e-003
      -1.28852343e-003 -1.33431633e-003 -1.30844349e-003
      -1.29987078e-003 -1.26779813e-003 -1.27357407e-003
      -1.24028034e-003 -1.17843808e-003 -1.14152115e-003
      -1.20485353e-003 -1.20626681e-003 -1.19054201e-003
      -1.14444538e-003 -1.15372392e-003 -1.13617373e-003
      -1.04050932e-003 1.09279717e-004 8.29146447e-005 1.45454440e-004
      1.22352722e-004 1.57415721e-004 1.84738237e-004 1.24177168e-004
      4.24414684e-005 8.73885292e-005 8.28965203e-005 -1.92292737e-006
      -3.43741558e-005 5.01834293e-005 -5.01645161e-007 5.49041715e-006
      -3.36952398e-005 -3.40732404e-005 -8.63496316e-005
      -5.13655541e-004 -8.65189708e-004 -9.69016983e-004
      -5.68771444e-004 -4.12406487e-004 -3.10071162e-004
      -3.37318314e-004 -3.80587706e-004 -3.89415014e-004
      -3.23968183e-004 -3.46750719e-004 -3.21658590e-004
      -2.60663306e-004 -2.55235413e-004 -2.99182691e-004
      -2.85204384e-004 -2.46278680e-004 -3.33919452e-004
      -3.67669389e-004 -4.98728885e-004 -7.72267696e-004
      -8.42615031e-004 -8.61860521e-004 -7.32712972e-004
      -6.12326316e-004 -6.00155618e-004 -6.07025402e-004
      -5.18551562e-004 -4.48119856e-004 -6.25286251e-004
      -3.78823868e-004 -1.42021832e-004 -1.97212955e-007
      -1.15021088e-004 -2.24939911e-004 -5.86794864e-004
      -1.37298321e-003 -9.72199312e-004 -2.28540477e-004
      -4.51364176e-004 -8.59381922e-004 -7.53840490e-004
      -6.59229117e-004 -9.90428380e-004 -6.23041415e-004 2.56814546e-005
      3.38657177e-004 2.14322979e-004 3.97103722e-004 3.48167086e-004
      -5.71831828e-004 -5.04701515e-004 -5.86528040e-004
      -1.26318273e-003 -8.46108189e-004 -1.23105850e-003
      -7.63101154e-004 -3.72921175e-004 -3.08657443e-004 9.72899579e-005
      -1.78938106e-004 2.83206376e-004 3.18633975e-004 -1.50217338e-005
      4.73329215e-004 7.17325718e-004 6.05967769e-004 -5.59790624e-006
      -9.43581472e-005 1.82898511e-004 3.59390746e-004 3.72137496e-004
      9.83394217e-004 4.14182025e-004 -2.84792070e-004 4.31663851e-004
      1.53096276e-004 1.80773714e-004 -1.13025868e-004 -1.52841632e-004
      -2.74213118e-004 -9.89804743e-004 -1.24100479e-003
      -1.42609270e-003 -1.51735055e-003 -1.22755358e-003
      -8.30502366e-004 -3.18912527e-004 -4.40112519e-004
      -1.25605660e-003 -7.49448256e-004 -4.33637033e-004
      -9.95591690e-005 -7.03995000e-004 -1.04281004e-003
      -2.78251973e-004 9.60570062e-004 -2.15438369e-004 -9.48850065e-004
      3.06480979e-005 -1.72312604e-004 -1.89934493e-004 -2.99603387e-004
      -6.75948046e-004 -8.69971118e-005 1.36098359e-004 -3.30718904e-004
      -4.34674323e-004 -3.03561828e-004 -1.66421261e-004
      -7.48010498e-005 -2.84882379e-004 -3.50998598e-004
      -2.14608110e-004 -6.18230784e-004 -4.31406050e-004
      -4.43149154e-004 -4.22050536e-004 -3.51160677e-004
      -6.97007694e-004 -9.33079456e-004 -2.09090344e-004
      -1.96262972e-005 -1.79305105e-004 -1.29995914e-003
      -6.89999666e-004 -1.17061124e-003 -7.67010322e-004
      -5.40413021e-004 -5.50282421e-004 -6.06765214e-004
      -7.53543631e-004 -5.24102536e-004 -7.00633682e-004
      -4.00899502e-004 -4.74706700e-004 -4.50886495e-004
      -5.01866511e-004 -6.05291862e-004 -6.99788856e-004
      -6.31598930e-004 -1.14346575e-003 -6.72578637e-004
      -5.14725340e-004 -9.31482122e-004 -6.86200161e-004
      -4.39730706e-004 -3.90953443e-004 -3.99352662e-004
      -4.16704424e-004 -7.40491319e-004 -7.66483659e-004
      -1.28489465e-003 -1.31885312e-003 -1.09780382e-003
      -1.25619897e-003 -1.25425518e-003 -1.21439679e-003
      -1.21834420e-003 -1.15424744e-003 -1.16783811e-003
      -1.13132293e-003 -1.12350204e-003 -1.17400545e-003
      -1.18293520e-003 -1.20462617e-003 -1.24919671e-003
      -1.18473300e-003 -1.24633801e-003 -1.24437700e-003
      -1.25615520e-003 -1.21634977e-003 -1.20737928e-003
      -1.21695211e-003 -1.15989277e-003 -1.13273854e-003
      -1.20631803e-003 -1.19595474e-003 -1.10151863e-003
      -1.06863154e-003 -9.99620184e-004 -8.80148669e-004
      -2.32430048e-005 4.41283737e-005 1.67861712e-004 1.12001908e-004
      6.42178711e-005 1.64484591e-004 1.62356693e-004 8.74030811e-005
      3.10365649e-005 6.09050694e-005 3.22341402e-005 -4.78552975e-005
      -2.90715616e-005 1.15285648e-005 -2.41072994e-005 -3.40360457e-005
      -3.63943982e-005 -7.11967441e-005 -4.67181118e-004
      -7.32197776e-004 -8.74013116e-004 -4.77196765e-004
      -2.69772572e-004 -1.51308937e-004 -1.07571075e-004
      -1.87914979e-004 -1.35054259e-004 -1.75161476e-004
      -9.33230986e-005 -9.00006198e-005 -6.29533770e-006
      -3.07163718e-005 -8.12964208e-005 -2.10394592e-005
      -6.58605713e-005 -1.02713937e-004 -1.51498651e-004
      -2.47729156e-004 -6.83949387e-004 -9.43771447e-004
      -7.39636307e-004 -3.99027049e-004 -3.31454037e-004
      -4.72917949e-004 -5.12239116e-004 -6.52793096e-004
      -9.04271961e-004 -7.65799778e-005 -2.09636390e-004
      -2.46141135e-004 -9.50881338e-004 -1.67622202e-004
      -1.24480008e-004 -8.92493990e-005 9.94707298e-005 -5.41620364e-004
      -4.50525928e-004 9.83846621e-005 1.09052438e-004 -9.38827696e-004
      -9.36168013e-004 -4.12987545e-004 -5.73784462e-004
      -5.58020438e-005 1.73503984e-004 2.57413980e-004 2.75954575e-004
      2.10999191e-004 1.87288024e-004 5.46635303e-004 2.67245141e-005
      -1.53200363e-005 -1.62676224e-004 -9.91857029e-004
      -5.37491462e-004 -4.45112848e-004 1.81421085e-004 2.76626233e-004
      -3.94600589e-004 2.18279703e-004 3.58611374e-004 1.42549601e-004
      1.05878804e-004 -1.47615559e-004 5.65117400e-004 -2.34294363e-004
      -9.81149846e-004 -6.10959018e-004 1.60590673e-004 4.49846179e-004
      4.92913474e-004 4.28088621e-004 -1.87473750e-004 -7.83883035e-004
      5.52872021e-004 1.41581899e-004 -5.02202660e-004 -3.65127344e-004
      -1.42158021e-003 -2.48311390e-003 -1.89655251e-003
      -1.46870688e-003 -2.42068060e-003 -1.16676546e-003 4.25131875e-004
      1.08884706e-003 2.10141035e-004 3.09140269e-005 -2.99690262e-004
      -4.09302098e-004 -4.73692198e-004 -1.34771795e-003
      -6.25257031e-004 9.08531656e-004 8.51575111e-004 2.54790008e-004
      -3.72317212e-004 -3.43533262e-004 -2.63162481e-004
      -1.05175283e-003 -5.29991346e-004 9.32385155e-004 3.96415475e-004
      2.38411085e-005 -5.29902696e-004 -1.22630491e-003 -1.05466798e-003
      -1.54936034e-003 -7.79864728e-004 -1.73413355e-004
      -3.53031093e-004 -9.53153416e-004 -5.18510817e-004
      -8.64490983e-004 -7.54403882e-004 -3.94142437e-004
      -4.00154735e-004 -8.93333054e-004 -1.00709870e-003
      -8.86721420e-004 -9.83809936e-004 -7.75107765e-004
      -8.78367631e-004 -1.30333938e-003 -1.07156672e-003
      -9.47290740e-004 -7.59095186e-004 -8.54531943e-004
      -6.74470968e-004 -9.33251169e-004 -1.12303928e-003
      -6.46168133e-004 -7.55145447e-004 -7.93961342e-004
      -5.93955978e-004 -6.56824152e-004 -6.68908760e-004
      -7.02648715e-004 -5.96267695e-004 -7.99435831e-004
      -1.07198604e-003 -6.33213611e-004 -6.13247917e-004
      -1.05089787e-003 -7.69955746e-004 -4.86912410e-004
      -4.58267197e-004 -4.83153039e-004 -4.40739735e-004
      -5.13888779e-004 -8.15781008e-004 -1.29454886e-003
      -9.86716943e-004 -1.28338626e-003 -1.22252712e-003
      -1.21048850e-003 -1.20222149e-003 -1.18189375e-003
      -1.15080748e-003 -1.11589103e-003 -1.10211887e-003
      -1.21826213e-003 -1.25727430e-003 -1.19739526e-003
      -1.20309053e-003 -1.25038484e-003 -1.21041609e-003
      -1.22887385e-003 -1.22283783e-003 -1.19744753e-003
      -1.17025396e-003 -1.11756066e-003 -1.11147983e-003
      -1.15567830e-003 -1.15447282e-003 -1.10868644e-003
      -1.04067684e-003 -9.77433054e-004 -9.12495772e-004
      -8.46600684e-004 -2.36387408e-004 -8.82181030e-006 1.12983573e-004
      1.47904182e-004 1.25238788e-004 8.31174693e-005 5.05523894e-005
      -1.23058289e-005 -3.09983552e-005 -3.76734097e-005 9.65878644e-006
      5.67938405e-005 -3.53525911e-006 -1.83527318e-005 -1.52829252e-005
      -3.11171207e-005 -4.79241135e-005 -8.02438444e-005
      -4.28659725e-004 -6.87061576e-004 -8.43240821e-004
      -4.61299962e-004 -2.12855157e-004 -1.31129782e-004
      -1.04898827e-004 -1.04617175e-004 -1.60871554e-004
      -1.33952926e-004 -8.19502311e-005 -1.36393282e-004
      -1.06995976e-004 -2.77739800e-005 -5.88694784e-005
      -3.81575337e-005 -6.92414906e-005 -9.11447059e-005
      -1.06718238e-004 -1.97181653e-004 -5.47519710e-004
      -7.37476861e-004 -6.52263407e-004 -1.86179648e-004
      -2.09896825e-004 -1.90821287e-004 -3.50066723e-004
      -4.02217091e-004 -3.65301355e-004 -2.06740471e-004 3.12039687e-004
      5.30182617e-004 6.76167139e-004 7.21011311e-004 5.70059521e-004
      1.65449572e-004 3.76677381e-005 -4.33679466e-004 -3.94188217e-004
      -1.35581315e-004 -1.76035493e-004 -1.85346085e-004
      -1.72036802e-004 -1.45354161e-005 -2.90729822e-005
      -2.13694788e-004 -8.69502401e-005 1.15657902e-004 4.92795953e-004
      -2.26306045e-004 3.15021432e-004 1.18282938e-003 1.60844345e-003
      1.83435902e-003 1.64095603e-003 3.62973253e-004 5.99877130e-005
      3.20575258e-004 1.35361799e-003 4.47214610e-004 -3.92669026e-005
      5.86959140e-005 -3.15704849e-004 6.34977478e-005 -1.61564571e-003
      -1.02396857e-003 -5.87227405e-004 -1.08170521e-003
      -9.64182196e-004 1.18692760e-005 -6.46258995e-005 -1.24447746e-004
      2.36016975e-004 -2.44911847e-004 -3.94077906e-005 4.52361215e-004
      -4.65465768e-004 -3.01549240e-004 -6.23691420e-004
      -5.12505416e-004 -1.29252847e-003 -2.02276651e-003
      -1.85957004e-003 -1.07284624e-003 -1.79450365e-003
      -7.51096872e-004 -3.89565947e-004 6.12646283e-004 -3.68774898e-004
      9.80545185e-004 7.09176238e-004 -1.17833632e-004 1.15065879e-004
      -1.48226231e-004 -3.94732546e-004 5.15453052e-004 -4.64988756e-004
      8.33285623e-004 8.32529855e-004 -5.81846252e-005 -9.45446198e-004
      -9.59690369e-004 4.27456689e-004 1.34493259e-003 -2.76815030e-004
      -8.10361526e-004 -7.32908142e-004 -1.16756151e-003
      -8.22506961e-004 -1.77088880e-003 -1.56853464e-003
      -1.43457262e-003 -6.56659075e-004 -3.73253511e-004
      -9.14277567e-004 -4.03784827e-004 -1.23272208e-003
      -1.81690761e-004 -1.69834093e-004 -2.08631755e-004
      -5.89743198e-004 -8.08853714e-004 -1.01680821e-003
      -6.04827248e-004 -9.62766760e-004 -7.78515590e-004
      -1.58560416e-003 -1.32361089e-003 -1.03717088e-003
      -9.04163928e-004 -9.18534002e-004 -1.41957356e-003
      -8.96828948e-004 -1.10471714e-003 -1.15792651e-003
      -8.22253991e-004 -8.96168174e-004 -6.81520323e-004
      -6.58068631e-004 -7.05962535e-004 -6.77375065e-004
      -7.74329237e-004 -9.58175340e-004 -1.23723748e-003
      -5.78147708e-004 -7.53039960e-004 -8.16789223e-004
      -7.56123452e-004 -5.78075182e-004 -5.87867980e-004
      -4.34722519e-004 -5.02076175e-004 -8.16438347e-004
      -9.20894439e-004 -6.21882267e-004 -1.21749646e-003
      -1.30167091e-003 -1.27209304e-003 -1.25492504e-003
      -1.22475519e-003 -1.16602995e-003 -1.08121661e-003
      -1.12467690e-003 -1.17631326e-003 -1.18109712e-003
      -1.16981461e-003 -1.18626573e-003 -1.23660231e-003
      -1.20225805e-003 -1.21061876e-003 -1.19897467e-003
      -1.18797517e-003 -1.18904118e-003 -1.12898031e-003
      -1.13718875e-003 -1.16189988e-003 -1.08162058e-003
      -1.05114502e-003 -1.01182947e-003 -8.99123552e-004
      -8.39126646e-004 -8.46289971e-004 -5.55638515e-004
      -3.09982745e-004 -7.38024028e-005 7.63189892e-005 6.84045372e-005
      5.55366678e-005 4.85592063e-005 -1.65700312e-005 -1.03861876e-005
      -5.99227351e-005 -2.71772069e-006 -3.14103113e-006
      -4.39869327e-005 -4.25062717e-005 2.28733115e-005 -9.61071510e-006
      -6.90091256e-005 -8.83688408e-005 -4.32613306e-004
      -7.32119021e-004 -9.71471774e-004 -5.52020152e-004
      -2.80926586e-004 -1.34254922e-004 -1.29447406e-004
      -1.74150598e-004 -1.54925816e-004 -1.90759733e-004
      -1.97657660e-004 -1.86808771e-004 -1.70736617e-004
      -2.32995415e-004 -1.52278968e-004 -1.31740759e-004
      -1.00301695e-004 -8.99834049e-005 -1.54151989e-004
      -2.51524703e-004 -5.78337815e-004 -6.96844945e-004
      -7.13429879e-004 -8.93602031e-004 -5.54394850e-004
      -1.20147059e-004 -3.25621775e-004 -2.81947636e-004
      -6.64601859e-004 2.09617559e-004 -1.89340179e-004 4.40853852e-004
      1.88651640e-004 3.39538965e-004 2.89834907e-006 8.26356772e-005
      1.38278074e-005 1.42874575e-004 -3.08885676e-004 -5.98227663e-004
      2.65753042e-004 3.42099287e-004 -6.88487708e-005 -4.71700070e-004
      6.35484776e-006 4.47919621e-004 -8.20811401e-005 3.61249840e-004
      6.68858876e-004 6.00662839e-004 4.43518045e-004 7.95624917e-004
      1.46373548e-003 1.98496762e-003 1.21535547e-003 1.21004367e-003
      3.77975259e-004 2.52395421e-005 -3.49401700e-004 6.48054993e-004
      -1.54430763e-005 -7.18574971e-004 -6.23744680e-004
      -4.92063235e-004 -1.54623459e-003 -1.75737694e-003
      -1.65540294e-003 -2.13579205e-003 -1.82534393e-003
      -1.37786171e-003 -1.08314783e-003 -8.35060782e-004
      -4.48022154e-004 -1.22275681e-003 -1.44042904e-004 2.99294014e-004
      -2.19569658e-004 -3.03919602e-004 -1.07189233e-003
      -1.72188994e-003 -2.12159799e-003 -2.21082149e-003
      -1.25449733e-003 6.39843856e-005 -2.13746898e-004 1.63504446e-004
      6.93272043e-004 1.24568178e-003 1.14715414e-003 8.71849013e-004
      6.29076210e-004 8.79574043e-004 8.82515567e-004 5.14599727e-004
      -3.13631957e-004 1.15094685e-004 9.53821989e-004 1.04440306e-003
      2.88806477e-004 -8.58782732e-005 5.08280995e-004 -3.91402755e-005
      -4.46645659e-004 -1.65249716e-004 -1.73477471e-004
      -8.88020033e-004 -6.45615393e-004 -6.10798015e-004
      -7.15832808e-004 -6.93650392e-004 -1.29243324e-003
      -8.98725586e-004 3.06007423e-004 8.74878373e-004 2.21654002e-004
      -2.32802864e-004 -9.24696156e-004 -1.01852906e-003
      -5.82188135e-004 -6.96030736e-004 -9.31771821e-004
      -3.52025032e-004 -1.35887193e-003 -9.24234511e-004
      -7.05250888e-004 -1.41182635e-003 -1.56911009e-003
      -1.25923799e-003 -9.47661872e-004 -9.50537738e-004
      -7.55925605e-004 -8.34220147e-004 -1.44846679e-003
      -1.13026670e-003 -1.06004428e-003 -1.25132513e-003
      -9.74921626e-004 -1.11622980e-003 -7.70515064e-004
      -8.31571640e-004 -7.90930062e-004 -7.45711091e-004
      -6.91330875e-004 -1.23398856e-003 -1.12659566e-003
      -6.62682403e-004 -8.58032086e-004 -7.41141208e-004
      -8.28751246e-004 -7.66631740e-004 -6.20681269e-004
      -5.17059059e-004 -7.17294693e-004 -6.66253618e-004
      -5.01594099e-004 -1.28722691e-003 -1.39030337e-003
      -1.29604957e-003 -1.22056261e-003 -1.18316337e-003
      -1.15332729e-003 -1.14386866e-003 -1.12337281e-003
      -1.12178305e-003 -1.19369070e-003 -1.17907173e-003
      -1.20277214e-003 -1.20854087e-003 -1.17543724e-003
      -1.16050476e-003 -1.17401429e-003 -1.09271088e-003
      -1.18904898e-003 -1.13553856e-003 -1.07649784e-003
      -1.03741977e-003 -1.08829583e-003 -1.01298606e-003
      -8.70567979e-004 -8.68187810e-004 -8.90361785e-004
      -8.76896025e-004 -7.10142020e-004 -5.12567000e-004
      -2.89670890e-004 5.87974364e-006 1.06046857e-004 9.21775281e-005
      1.17846157e-005 -2.85838578e-005 1.96937144e-005 4.59846960e-005
      4.38072275e-005 -1.84382989e-005 -7.11210523e-005 -4.22466428e-006
      -1.00580555e-005 -8.19570414e-005 -1.07858621e-004
      -8.00551061e-005 -4.22460173e-004 -7.69141596e-004
      -9.15696088e-004 -5.41756221e-004 -2.41803835e-004
      -1.50045380e-004 -1.54736656e-004 -2.00855662e-004
      -1.98007649e-004 -1.92835840e-004 -1.71693653e-004
      -2.52299855e-004 -1.61576783e-004 -2.00529161e-004
      -1.30575703e-004 -1.14657152e-004 -1.32517336e-004
      -1.49104759e-004 -1.98755719e-004 -2.93258170e-004
      -5.87275135e-004 -8.53150734e-004 -7.34422007e-004
      -2.78747379e-004 -3.63078434e-004 -2.89337389e-004
      -5.33413549e-004 -3.17520316e-005 9.11214302e-005 2.05352320e-004
      -4.22495010e-004 3.37719306e-004 -1.50835185e-004 -6.23584143e-004
      -5.05725038e-004 -1.17316813e-006 1.91472369e-004 5.17527340e-004
      4.96731198e-004 4.05133818e-004 -1.41657802e-004 4.43622266e-004
      4.18417359e-004 -1.55382455e-004 1.93020416e-004 3.15711164e-004
      -2.12912753e-004 5.70330922e-005 -4.36508271e-004 -2.87729813e-006
      5.48607146e-004 5.94859739e-005 -8.29075230e-004 6.53876350e-006
      -5.58165601e-004 4.55584755e-004 1.31711410e-003 -6.87285647e-005
      6.76940253e-004 3.17698985e-004 -6.20050487e-005 -3.99295968e-004
      -9.52681294e-005 -2.01200201e-005 -1.01949030e-003
      -2.45594163e-003 -2.11032131e-003 -2.50550220e-003
      -2.53867754e-003 -1.82342681e-003 -1.11864263e-003 9.42991246e-005
      -6.19769620e-004 -1.25221955e-003 -9.39818041e-004
      -1.31017339e-004 -1.21009478e-003 -7.47994694e-004
      -1.00032303e-004 -8.17919441e-004 -4.60708194e-004
      -2.02381867e-004 -1.96394190e-004 8.77272323e-005 6.95868803e-004
      7.72323750e-004 8.07384553e-004 7.13478425e-004 1.16943347e-003
      9.14705161e-005 -1.77505353e-004 1.28663611e-003 6.50132424e-004
      7.64244294e-004 3.06437811e-004 1.17293466e-003 9.17894940e-004
      1.15392916e-003 2.09265435e-003 1.73310738e-003 1.55908510e-003
      1.05023722e-003 9.31629736e-004 8.76295147e-004 1.21598598e-003
      5.74968988e-004 4.56632624e-005 -6.97390875e-004 -1.65426871e-004
      1.86208286e-004 -8.21046531e-004 6.94705581e-004 1.25404377e-003
      1.86670004e-004 -1.05868827e-003 -1.33030303e-003 -6.06908638e-004
      -9.15602723e-004 -2.01932690e-003 -7.56224559e-004
      -6.18226361e-004 -6.95611932e-004 -6.61825063e-004
      -1.39672589e-003 -8.28566495e-004 -1.12599577e-003
      -1.93017721e-003 -1.66290498e-003 -1.04947295e-003
      -1.10505568e-003 -8.37102940e-004 -9.09989001e-004
      -1.11781305e-003 -9.12866264e-004 -8.50733253e-004
      -9.30611277e-004 -1.02155190e-003 -1.27753103e-003
      -9.47325141e-004 -1.15620974e-003 -9.08132235e-004
      -9.38285957e-004 -8.32673803e-004 -1.47603720e-003
      -1.25396834e-003 -8.99739447e-004 -8.75322497e-004
      -8.99646489e-004 -7.26733415e-004 -9.09203372e-004
      -7.73181557e-004 -6.46515342e-004 -5.44680166e-004
      -5.58547152e-004 -5.04470547e-004 -9.80897574e-004
      -1.38886378e-003 -1.29486399e-003 -1.21256511e-003
      -1.17297040e-003 -1.18324638e-003 -1.15118409e-003
      -1.06499728e-003 -1.10826141e-003 -1.14971772e-003
      -1.13227509e-003 -1.14365050e-003 -1.11252826e-003
      -1.13692752e-003 -1.07770623e-003 -1.09778810e-003
      -1.06149295e-003 -1.13110477e-003 -1.10352051e-003
      -1.07561646e-003 -1.04423496e-003 -1.04426872e-003
      -9.24981257e-004 -8.37701256e-004 -8.56429746e-004
      -8.95228703e-004 -8.75499682e-004 -5.97137026e-004
      -6.68008230e-004 -6.15001016e-004 -3.25629429e-004
      -5.62583955e-005 1.08101136e-004 6.00605417e-005 -1.38964724e-005
      -3.03240831e-005 -6.36258410e-005 -1.48126674e-005 2.17655979e-005
      -1.29852124e-005 -8.34991006e-005 -6.45939363e-005
      -9.38263402e-005 -1.23886886e-004 -1.10761728e-004
      -4.18082491e-004 -7.67955906e-004 -9.10053670e-004
      -4.72328247e-004 -2.58632557e-004 -1.53100205e-004
      -1.67910403e-004 -2.73243902e-004 -2.80371780e-004
      -2.26997276e-004 -2.20056521e-004 -2.25021809e-004
      -1.96918816e-004 -1.64501558e-004 -2.34469713e-004
      -2.32725724e-004 -1.97564339e-004 -2.31990183e-004
      -3.00718297e-004 -3.59442522e-004 -6.47110224e-004
      -8.93438410e-004 -8.08980258e-004 -4.39733412e-004
      -3.29192437e-004 -8.25235911e-005 2.25449980e-006 -5.83865622e-005
      2.39363420e-004 -1.02934842e-004 -4.64916608e-004 -1.73473702e-004
      -4.50728403e-004 -8.99942897e-005 3.34242782e-006 3.05470574e-004
      1.41737808e-004 -3.10431002e-004 -9.69578759e-005 4.49316663e-004
      9.09791561e-004 4.35889349e-004 -6.56493707e-004 -3.37714213e-004
      -6.32584706e-005 2.60469096e-004 -1.36676084e-004 6.15127938e-005
      -2.12393978e-004 3.88012355e-004 1.53202889e-003 5.90177078e-004
      -1.60536918e-004 2.99052015e-004 -5.54144324e-004 -2.47987191e-004
      7.97921210e-004 3.35419376e-004 3.29202885e-004 -4.33530426e-004
      -3.74153169e-004 -7.77593232e-004 -9.35584190e-004
      -3.27135320e-004 -4.97239584e-004 -1.58759474e-003
      -1.52600335e-003 -1.28978107e-003 -8.11918988e-004 1.69769904e-004
      -3.47343943e-004 1.75618290e-004 4.64406476e-005 -5.87734103e-004
      -7.62519077e-004 -9.50276037e-004 4.47771803e-004 1.12559216e-003
      9.93506983e-004 -4.67936305e-004 -1.01443016e-004 6.86716376e-005
      3.48809437e-004 1.35310367e-003 2.18910747e-003 1.63490046e-003
      1.42496708e-003 1.28435576e-003 1.53263134e-003 1.89915730e-003
      2.03249557e-003 1.06844725e-003 4.02209291e-004 3.61608574e-004
      6.26457389e-004 2.63102632e-003 2.68944935e-003 1.87209307e-003
      1.08994474e-003 1.50446268e-003 6.95658382e-004 2.37075328e-005
      3.75045565e-005 -5.69467025e-004 1.14118890e-003 2.07195291e-003
      1.60868105e-003 1.23800128e-003 3.59044585e-004 1.74695451e-003
      1.30585732e-003 1.13693568e-004 -7.94957159e-004 -7.53790140e-004
      -6.18784747e-004 -8.87221715e-004 -9.94746690e-004
      -9.00242128e-004 -1.02305179e-003 -7.76422734e-004
      -1.12662266e-003 -6.82674814e-004 -6.91663416e-004
      -7.54354813e-004 -5.78854873e-004 -8.66099377e-004
      -1.52408204e-003 -3.93049675e-004 -9.07293172e-004
      -2.53915903e-004 -9.45012842e-004 -5.98201936e-004
      -5.77612838e-004 -7.23320642e-004 -7.53604400e-004
      -9.88926971e-004 -6.84885657e-004 -7.07482919e-004
      -1.07210339e-003 -9.54226591e-004 -6.96297328e-004
      -1.07189128e-003 -7.45658297e-004 -1.30115915e-003
      -8.24382529e-004 -9.42798681e-004 -8.28267192e-004
      -8.72191740e-004 -9.06176807e-004 -8.76548700e-004
      -7.89109152e-004 -7.91119994e-004 -6.55414071e-004
      -6.50507980e-004 -5.41626883e-004 -4.90181264e-004
      -1.15663675e-003 -1.28946395e-003 -1.24461588e-003
      -1.18107744e-003 -1.20184675e-003 -1.12731312e-003
      -1.06988999e-003 -1.10497908e-003 -1.11977221e-003
      -1.08238088e-003 -1.10335322e-003 -1.09945482e-003
      -1.07612822e-003 -1.06800743e-003 -1.08334562e-003
      -1.09496375e-003 -1.03523000e-003 -1.07371749e-003
      -1.08893344e-003 -1.04527443e-003 -9.77816642e-004
      -9.06786241e-004 -8.18326836e-004 -8.49890814e-004
      -8.85414018e-004 -8.66543269e-004 -2.68695672e-004
      -5.45819872e-004 -7.22045545e-004 -6.88536093e-004
      -3.78087279e-004 -1.46839782e-004 -1.11456538e-005
      -6.30051800e-005 -9.11249444e-005 -8.68405768e-005
      -6.48889763e-005 -8.47667397e-005 -9.76246665e-005
      -1.27058767e-004 -1.25749837e-004 -1.51833461e-004
      -1.31931389e-004 -9.81204139e-005 -4.26339568e-004
      -7.26834580e-004 -9.36050899e-004 -5.23274299e-004
      -3.15440615e-004 -2.00818045e-004 -2.69145530e-004
      -2.77876912e-004 -2.88554147e-004 -2.65915471e-004
      -3.01952328e-004 -2.86176364e-004 -2.21156428e-004
      -1.98114183e-004 -1.85362704e-004 -2.65672163e-004
      -3.53059615e-004 -2.80192471e-004 -2.32816485e-004
      -3.40589380e-004 -5.92949276e-004 -7.59753631e-004
      -8.03897448e-004 -4.39545285e-004 -4.44604724e-004
      -1.02676502e-004 -7.76026209e-005 -7.03101250e-005 3.24489578e-004
      -1.39824770e-004 9.02968750e-005 2.00224211e-004 1.32801491e-004
      -7.73178836e-005 8.72004093e-005 1.40698918e-004 6.41425431e-005
      1.28797459e-004 2.27028620e-004 6.51829119e-004 1.45446649e-003
      1.41507876e-003 9.04500426e-004 6.10997609e-004 3.87870183e-004
      7.04004487e-004 -3.70190537e-004 5.65531489e-004 -5.98062470e-004
      -6.26091321e-004 -6.30213690e-005 3.39892140e-004 -2.02962619e-004
      -5.60896115e-006 -7.18045203e-006 7.38310860e-004 1.13281909e-004
      1.29208463e-004 -8.40084977e-004 -1.75369810e-003 -1.32365478e-003
      -1.13253004e-003 -1.04731310e-003 -3.77683231e-004 2.30132442e-004
      -1.30117196e-003 -1.65359536e-003 -1.74562179e-003
      -1.41051610e-003 -6.66919863e-004 -6.83037797e-004 1.11706089e-003
      1.90738728e-003 -4.73326727e-005 3.37877922e-004 9.88189015e-004
      1.85076066e-003 2.09455076e-003 1.61043182e-003 3.22881097e-004
      -5.79780608e-004 3.85639985e-004 2.52525299e-003 2.85610999e-003
      1.68694544e-003 1.99220842e-003 1.80009764e-003 1.58066675e-003
      2.16887915e-003 2.64848745e-003 1.06228725e-003 5.74231262e-006
      1.88504011e-004 6.54954405e-004 5.27552736e-004 1.83460512e-003
      1.48442003e-003 1.09433569e-003 1.43514224e-003 1.75075617e-003
      1.61889894e-003 2.24039960e-003 1.49771722e-003 6.96939125e-004
      1.73167419e-003 1.70792197e-003 1.95542793e-003 1.44778728e-003
      2.74033262e-003 2.58608046e-003 1.28712214e-004 -1.22964487e-003
      -1.01567560e-003 -1.14843238e-003 -1.06057222e-003
      -1.07941171e-003 -1.44519925e-003 -1.40439114e-003
      -8.82176333e-004 -8.43172194e-004 -8.73741054e-004
      -3.75277887e-004 -3.08903807e-004 -7.16671988e-004
      -6.56803488e-004 -8.69720534e-004 -8.91410047e-004
      -3.23505315e-004 -1.35575203e-004 6.09913317e-004 -7.69702237e-005
      -6.90709567e-004 -4.84210643e-004 -5.53966442e-004
      -5.55689039e-004 -6.04358793e-004 -9.50239191e-004
      -5.70777513e-004 -5.62994624e-004 -1.18620624e-003
      -5.82132896e-004 -6.10335090e-004 -5.80919208e-004
      -1.19203865e-003 -5.93228498e-004 -5.49201039e-004
      -6.31877920e-004 -5.40342939e-004 -7.10328342e-004
      -7.42899138e-004 -4.40333853e-004 -4.69700753e-004
      -6.04566885e-004 -8.33480852e-004 -3.39343504e-004
      -2.28319434e-004 -9.01127001e-004 -9.73617251e-004
      -9.58759687e-004 -9.93157271e-004 -9.75468429e-004
      -9.14798235e-004 -9.73399205e-004 -9.33808973e-004
      -9.89301363e-004 -9.94839706e-004 -1.03337155e-003
      -1.02791039e-003 -1.05685554e-003 -9.93893016e-004
      -1.02567847e-003 -1.05650700e-003 -1.05258729e-003
      -1.07091223e-003 -1.05825043e-003 -1.03742350e-003
      -9.36842291e-004 -8.91583564e-004 -7.96485110e-004
      -8.17573571e-004 -8.37395142e-004 -8.88511247e-004
      -6.22061416e-005 -2.22181014e-004 -4.95603308e-004
      -6.71228045e-004 -5.69983444e-004 -3.50287388e-004
      -1.35685157e-004 -9.75498260e-005 -6.93657348e-005
      -1.55775066e-004 -1.44197504e-004 -1.42108489e-004
      -1.37558643e-004 -2.01140079e-004 -1.89295970e-004
      -1.73050692e-004 -1.69919149e-004 -1.40352524e-004
      -4.38660732e-004 -7.23030709e-004 -1.02091616e-003
      -7.24485435e-004 -4.67718142e-004 -3.01651336e-004
      -2.78155785e-004 -3.35753051e-004 -3.19531246e-004
      -3.17826576e-004 -3.68194160e-004 -3.13605764e-004
      -2.72859732e-004 -3.04407411e-004 -3.14132805e-004
      -2.72509526e-004 -2.79190019e-004 -1.96848050e-004
      -2.06691955e-004 -2.86190159e-004 -5.95548423e-004
      -7.43429002e-004 -6.77555567e-004 -2.32429084e-004
      -2.32708699e-004 -4.08111431e-004 -7.45529425e-004
      -1.13668684e-004 7.09005923e-004 -4.97739587e-004 -2.54671777e-005
      3.33242439e-004 -2.14381376e-004 3.46486282e-004 6.35527598e-004
      4.90707229e-004 6.03924040e-004 4.51258791e-004 -3.55609955e-005
      1.67977909e-004 4.10935201e-004 7.34551286e-004 9.73418297e-004
      7.03198195e-004 7.74287386e-004 5.71498647e-004 -3.07378767e-004
      -1.06317876e-003 -6.81045174e-004 -7.40241259e-004
      -1.12847891e-003 -9.28262249e-004 -5.02059876e-004
      -1.04122632e-003 -1.54920039e-003 -4.43213881e-004
      -8.30715464e-004 -1.64473976e-003 -1.51266833e-003
      -2.05043913e-003 -1.93872489e-003 -2.02419632e-003 3.11028882e-004
      1.23107748e-003 2.35568059e-005 -8.39917338e-004 -1.25663180e-003
      -9.00833751e-004 -2.45554489e-004 4.95779037e-004 5.50691911e-004
      1.38529902e-003 1.12678774e-003 1.04964024e-003 1.19033363e-003
      2.25045974e-003 2.04251241e-003 1.64087850e-003 1.06994750e-003
      1.15278852e-003 1.24578248e-003 5.05975273e-004 6.97625102e-004
      3.29126779e-004 1.14207482e-003 7.21682562e-004 1.19256310e-003
      3.98377830e-004 1.47683837e-003 2.32002072e-004 8.62101966e-004
      2.26878328e-004 -1.08289183e-004 4.87253710e-004 2.37827015e-004
      1.42389035e-003 2.53933831e-003 2.28158757e-003 2.29502469e-003
      1.94768491e-003 2.12066015e-003 2.87507800e-003 1.99643616e-003
      1.50917761e-003 1.66291581e-003 2.62593734e-003 2.99483794e-003
      2.62184185e-003 3.09974584e-003 2.66079768e-003 1.40942703e-003
      8.29756609e-004 8.41326488e-004 -1.49826825e-004 -5.69614698e-004
      -1.36516080e-003 -1.31135480e-003 -1.21216895e-003
      -9.68597946e-004 -8.50998971e-004 -4.94729320e-004
      -4.80389659e-004 -4.20248689e-004 -6.33236850e-005
      -3.10129137e-004 -1.98906218e-006 -4.40847682e-004
      -7.12092908e-004 5.45946881e-004 3.80433892e-004 8.04414914e-004
      -1.55766320e-004 -3.56483506e-004 -6.28911890e-004
      -4.88088146e-004 -4.70276311e-004 -1.37676031e-003
      -1.19297823e-003 -7.87551515e-004 -7.99967151e-004
      -6.51315611e-004 -4.47251805e-004 -7.51751591e-004
      -1.13579724e-003 -6.05693320e-004 -3.16886522e-004
      -3.41906853e-004 -5.69178781e-004 -4.91440238e-004
      -7.28928484e-004 -5.10290381e-004 -2.74320511e-004
      -2.87788484e-004 -4.25365812e-004 -2.19028370e-004
      -2.56931293e-004 -3.42326210e-004 -5.14744082e-004
      -7.41644588e-004 -7.26142956e-004 -6.92812726e-004
      -6.95754366e-004 -6.66373177e-004 -5.67079871e-004
      -6.13354787e-004 -6.20306353e-004 -5.95394638e-004
      -6.81466307e-004 -7.14485417e-004 -7.05951708e-004
      -7.06536812e-004 -7.14006193e-004 -7.55504414e-004
      -6.35708857e-004 -7.15564587e-004 -6.36991812e-004
      -7.12834473e-004 -7.09495333e-004 -6.66759850e-004
      -7.15259812e-004 -7.41984870e-004 -8.26525094e-004 1.75170931e-006
      -6.87204083e-005 -1.93787695e-004 -5.15210384e-004
      -6.73143251e-004 -6.69018948e-004 -4.01780359e-004
      -1.92732361e-004 -1.46202103e-004 -1.33199253e-004
      -6.08556875e-005 -1.23548773e-004 -2.02427094e-004
      -1.97894580e-004 -1.57784525e-004 -1.69316729e-004
      -1.20668046e-004 -1.99653135e-004 -4.67673090e-004
      -7.35740585e-004 -1.00047409e-003 -7.06392108e-004
      -4.67143924e-004 -3.04992805e-004 -2.50689220e-004
      -2.46787182e-004 -3.19885701e-004 -2.96926242e-004
      -3.30327282e-004 -3.09959869e-004 -3.87049484e-004
      -3.37245554e-004 -2.81367596e-004 -2.40660360e-004
      -1.63940829e-004 1.28451356e-004 4.11552610e-004 3.85223568e-004
      -1.54953406e-004 -8.24378629e-004 -1.36345869e-003 2.71541881e-004
      -6.81158504e-004 -4.36521368e-004 -2.17258872e-004
      -7.01865589e-004 -2.35730593e-004 -3.14598379e-004 2.87211769e-005
      -1.95999484e-004 7.34710993e-005 3.13010038e-004 5.18972345e-004
      6.69157074e-004 1.01110642e-003 8.76304985e-004 8.47837655e-004
      3.33216332e-004 -3.47937486e-004 1.95794943e-004 1.16268848e-003
      3.87289125e-004 -2.53475300e-004 -4.50096995e-004 -1.33546651e-003
      -2.68275780e-003 -1.93182088e-003 -1.50165625e-003
      -1.75311975e-003 -2.07593478e-003 -1.15544116e-003
      -4.69872524e-004 -1.37656904e-003 -1.40018424e-003
      -1.44800881e-003 -1.39857386e-003 4.13165544e-004 4.72765765e-004
      6.00896659e-004 -2.66734714e-004 -1.03853235e-003 -1.75490021e-003
      -1.25412387e-003 -1.48194924e-003 2.94845260e-004 7.18295341e-005
      -2.27863944e-004 -2.01538733e-005 5.59059728e-004 -4.14088223e-004
      4.42747434e-004 2.05666153e-003 2.25051772e-003 1.23247330e-003
      1.05488847e-003 1.95313455e-003 1.59363600e-003 1.62259315e-003
      6.84960105e-004 -7.75289314e-004 -5.22911607e-004 2.88422307e-004
      1.03410718e-003 1.01266277e-003 1.05275353e-003 -1.61829332e-004
      6.17757672e-004 6.59903453e-004 2.56921339e-004 1.29618833e-003
      8.00622511e-004 5.99487452e-004 1.47163414e-003 2.02231365e-003
      2.21353699e-003 2.24631117e-003 1.95933064e-003 2.73381011e-003
      2.54246220e-003 1.84158352e-003 1.36545626e-003 1.78781338e-003
      2.43561529e-003 2.49090022e-003 2.85094418e-003 2.88748252e-003
      2.74438201e-003 2.48948601e-003 1.26834260e-003 4.17926902e-004
      7.54341454e-005 3.72561859e-004 -7.91830025e-005 -2.01808230e-004
      -4.40598407e-004 -8.48157797e-004 -4.62507858e-004
      -6.88141852e-004 -6.07897411e-004 -8.36145482e-004
      -3.97736818e-004 -1.96577806e-004 -1.04731596e-004 2.65006238e-004
      -1.66467769e-004 -1.22481841e-003 8.25506577e-005 3.15231264e-005
      4.25411767e-004 8.70339500e-005 3.94045521e-004 -4.24448954e-004
      -8.83022149e-004 -1.08938827e-003 -8.85300280e-004
      -7.71494058e-004 -1.10730773e-003 -7.94926775e-004
      -6.64812163e-004 -8.77136365e-004 -1.40116981e-003
      -1.01206964e-003 -1.00616855e-003 -4.13647125e-004
      -2.97609222e-004 -2.76922132e-004 -4.22601006e-004
      -5.32714999e-004 -2.40410998e-004 -4.76522633e-004
      -2.40109744e-004 -5.08798621e-005 -4.13107409e-006
      -3.47513240e-004 1.09138047e-004 -1.98610578e-004 -1.62221651e-004
      -5.24726114e-004 -5.17116510e-004 -4.64981480e-004
      -5.24409697e-004 -4.98846581e-004 -4.49857675e-004
      -4.81465511e-004 -5.39908127e-004 -5.11372986e-004
      -4.58604540e-004 -4.47918050e-004 -4.77825670e-004
      -5.11339284e-004 -5.38202410e-004 -4.99337271e-004
      -4.77762078e-004 -4.00621851e-004 -3.96736228e-004
      -3.97515891e-004 -4.41169454e-004 -4.51654429e-004
      -4.99081623e-004 -5.83292800e-004 -1.53003875e-005 6.09528688e-005
      -6.94305272e-005 -2.05640492e-004 -5.53269812e-004
      -7.17883988e-004 -6.46707835e-004 -4.24777798e-004
      -2.20572358e-004 -8.23641312e-005 -1.57196191e-004
      -1.52652792e-004 -1.75655732e-004 -1.94962471e-004
      -1.88607941e-004 -1.56182505e-004 -1.63112476e-004
      -1.64804806e-004 -3.86514032e-004 -6.76996016e-004
      -1.00155373e-003 -7.58815382e-004 -4.25954087e-004
      -2.50681915e-004 -2.30777267e-004 -2.62720656e-004
      -2.90710886e-004 -2.45931034e-004 -2.07672929e-004
      -3.25443543e-004 -2.15977328e-004 -2.78389547e-004
      -2.67518713e-004 -3.14145611e-004 -2.31836078e-004
      -2.33782397e-004 -1.22940066e-004 -2.63447000e-004
      -5.76856080e-004 -7.46043399e-004 -3.85366206e-004
      -4.78503847e-004 -8.65788141e-004 2.17536915e-004 -1.15984969e-003
      -1.43514050e-003 -7.65001751e-004 -1.04174973e-003
      -5.33335085e-004 -4.32922621e-004 -1.72054031e-004
      -2.65204551e-004 -3.67063301e-004 4.92561143e-004 7.82134128e-004
      1.17185211e-003 1.88990543e-003 9.76476877e-004 -2.13303734e-004
      -6.74303505e-004 -1.45544636e-003 -1.68335706e-003
      -1.42075482e-003 -1.39743218e-003 -1.08333584e-003
      -1.60837104e-003 -2.21348694e-003 -1.82532484e-003
      -2.20793928e-003 -1.91014318e-003 -1.30479084e-003
      -8.55442020e-004 -8.33703671e-004 -7.21862423e-004
      -5.97565551e-004 -5.95692254e-004 3.08075658e-004 7.05687504e-004
      2.84312206e-004 7.83870346e-004 7.53921631e-004 1.47577521e-004
      1.41273439e-003 1.36590214e-003 8.78564970e-005 -4.46037797e-004
      6.91887835e-005 4.85709752e-004 4.20641954e-005 1.42245565e-003
      2.02099304e-003 1.49877265e-003 2.08285055e-003 1.30051468e-003
      1.27056078e-003 9.07746435e-004 4.46241174e-005 5.95653779e-004
      3.89624387e-004 -9.75200965e-004 -6.06726448e-004 -5.00539260e-004
      -4.02973325e-004 5.75509039e-005 5.96886675e-004 2.22296236e-004
      -3.95901843e-005 4.66670172e-004 3.26991838e-004 1.13463239e-003
      3.64040083e-004 7.38113013e-004 9.20431281e-004 1.60185690e-003
      1.50579738e-003 1.07389782e-003 1.67648983e-003 2.80703790e-003
      2.45957868e-003 1.94197148e-003 1.35402440e-003 2.12627347e-003
      2.69396976e-003 2.36040889e-003 2.44593387e-003 1.78077153e-003
      1.95890735e-003 2.82381382e-003 2.28627888e-003 1.76716526e-003
      9.47674853e-004 2.98635248e-004 8.92879980e-005 7.16131472e-004
      1.49366242e-004 -6.20098668e-004 -3.49650392e-004 4.88754085e-005
      -2.12001542e-004 -6.65111293e-004 -7.50990061e-004
      -5.62186644e-004 -3.49077367e-004 -3.15094541e-004
      -4.11808986e-004 -6.97085517e-004 -4.96640161e-004
      -4.05732164e-004 -4.03589947e-004 -3.40722268e-004
      -5.29430807e-004 -1.31498789e-004 -2.96774379e-004
      -1.18033378e-003 -6.66866370e-004 -1.86668563e-004
      -3.26102047e-004 -5.92215336e-004 -5.89708681e-004
      -7.58982787e-004 -1.33675814e-003 -9.61070880e-004
      -8.81434476e-004 -5.54869184e-004 -3.30353185e-004
      -5.03320771e-004 -3.49757902e-004 -2.17894121e-004
      -1.05987157e-004 -4.19461430e-005 -1.09218578e-004
      -7.46447540e-006 1.70894084e-004 1.78971924e-004 1.62920769e-004
      2.91278557e-004 2.59146065e-004 -9.20979510e-005 -3.01775202e-004
      -3.23898741e-004 -2.54212733e-004 -2.35513246e-004
      -1.47145387e-004 -2.04456956e-004 -2.37385379e-004
      -1.59555537e-004 -1.69531908e-004 -2.03431468e-004
      -2.87659466e-004 -2.50344485e-004 -2.76794046e-004
      -3.05157329e-004 -2.77540472e-004 -2.84867012e-004
      -3.06787755e-004 -2.82615569e-004 -3.09049385e-004
      -3.47797701e-004 -3.67045228e-004 -4.04043007e-004
      -3.79648259e-006 9.02265765e-006 -6.76588706e-006 -3.14589015e-005
      -2.48666765e-004 -5.34015300e-004 -8.19427660e-004
      -7.49602914e-004 -4.61115211e-004 -2.31772909e-004
      -1.71323685e-004 -1.84945966e-004 -1.74549248e-004
      -2.25127587e-004 -2.31177270e-004 -1.52410095e-004
      -1.89018509e-004 -1.75946159e-004 -3.90733272e-004
      -6.70879381e-004 -9.73501592e-004 -6.41021819e-004
      -4.01411147e-004 -2.49275210e-004 -3.31925141e-004
      -2.70796474e-004 -3.14358418e-004 -3.15167359e-004
      -2.87522678e-004 -2.14848144e-004 -4.62452008e-004
      -2.98195926e-004 -2.25514028e-004 -2.56072934e-004
      -2.62805173e-004 -2.59726687e-004 -1.16178257e-004
      -2.60922941e-004 -2.23151917e-004 -5.50605997e-004
      -8.99523613e-004 -3.31696996e-004 1.77746129e-004 8.09299381e-005
      1.75428315e-004 -5.89491741e-004 -1.63105770e-003 -1.25485915e-003
      -1.23771001e-003 -1.05656323e-003 -4.21207427e-004 6.91038440e-005
      2.65339972e-004 3.13409051e-004 4.99071437e-004 1.50520995e-004
      -2.87066650e-004 -8.88271898e-004 -9.58157936e-004
      -6.80327415e-004 -8.68706731e-004 -7.79167516e-004
      -7.38654402e-004 -1.73105788e-003 -2.18698778e-003
      -1.92189915e-003 -1.16107857e-003 -8.05620046e-004
      -1.22074038e-003 -1.24465954e-003 -1.01141410e-003
      -1.14221231e-003 -3.80254583e-004 8.89980147e-005 -8.28697404e-004
      -6.59557816e-004 -8.50696524e-005 7.33357447e-004 5.34562394e-004
      9.85765131e-004 1.04805245e-003 3.78796860e-004 6.34887954e-004
      6.82942627e-004 4.33903857e-004 4.63114178e-004 5.70677919e-004
      9.58770746e-004 6.67790824e-004 1.08464075e-004 6.02232991e-004
      1.09093229e-003 1.03036000e-003 4.08179360e-004 5.62108107e-005
      -2.84628477e-004 -2.68001924e-004 -2.84308771e-004
      -3.67297500e-004 -8.36622203e-004 -6.96919742e-004
      -8.32108490e-004 -1.54150021e-003 -1.11952750e-003
      -6.99719996e-004 -5.41489397e-004 2.20723727e-004 7.78675894e-004
      -3.43643042e-004 -9.23273474e-005 5.39019529e-004 4.36579605e-004
      1.49881188e-003 2.03528744e-003 2.05912255e-003 2.48565129e-003
      2.67223245e-003 2.39099353e-003 2.71379459e-003 2.53741397e-003
      1.38703070e-003 1.42000057e-003 9.05660156e-004 1.21048780e-003
      2.91109830e-003 3.59704229e-003 2.51135812e-003 2.43186485e-003
      2.12105853e-003 1.43297366e-003 7.96973880e-004 8.59051826e-004
      -1.19823751e-004 -2.38837980e-004 -5.06001757e-004
      -7.77749228e-004 -9.98603762e-004 1.85029021e-005 4.00511606e-004
      -2.81113636e-004 -6.84928149e-004 -7.52784719e-004
      -6.10247953e-004 -4.94552252e-004 -3.84617451e-004
      -4.83374839e-004 -2.36275839e-004 -6.43057982e-004
      -5.58367406e-004 -4.32734902e-004 -5.23835071e-004
      -3.63831146e-004 -8.43322559e-005 2.65690469e-004 -2.38302673e-004
      -9.96148912e-004 -8.79895408e-004 -4.19102493e-004
      -5.69342577e-004 -1.30863895e-003 -1.32907077e-003
      -1.33897446e-003 -1.25768385e-003 -6.31774426e-004
      -8.37032567e-004 -5.27316355e-004 -3.34377837e-004
      -3.92931863e-004 -1.97422822e-004 -4.60501133e-006 1.44228732e-004
      -1.23380014e-005 -2.59510649e-004 -2.94593174e-005 3.55258875e-004
      2.45140807e-004 6.13171578e-005 4.59951436e-004 -2.73420621e-004
      -1.39519427e-004 -1.64868863e-004 -1.14201765e-004
      -8.23711889e-005 -1.22000754e-004 -1.07525440e-004
      -5.46789561e-005 -8.36374693e-006 -1.57068818e-004
      -4.43988974e-005 -1.23302452e-004 -1.66262791e-004
      -9.65595027e-005 -1.20003802e-004 -1.42618257e-004
      -1.64329918e-004 -9.64944411e-005 -2.08604382e-004
      -1.50705091e-004 -2.30738893e-004 -2.36863576e-004
      -2.83203849e-006 -6.75163101e-005 -1.08272579e-004
      -3.54616786e-005 -1.21963923e-004 -3.17563070e-004
      -6.57049648e-004 -8.69174139e-004 -7.53097294e-004
      -5.63082751e-004 -3.23921151e-004 -2.17917463e-004
      -2.71705241e-004 -2.05848628e-004 -1.30627304e-004
      -1.75663139e-004 -1.93165179e-004 -2.14050306e-004
      -3.67322762e-004 -6.34319556e-004 -9.44199390e-004
      -7.20696815e-004 -4.74348693e-004 -2.74022721e-004
      -3.46952671e-004 -3.44221335e-004 -3.42062325e-004
      -3.78366938e-004 -3.39629274e-004 -3.76304612e-004
      -3.69224290e-004 -5.41297777e-004 -3.33667675e-004
      -1.81733863e-004 2.09703194e-005 6.15422177e-005 3.11358199e-005
      -2.84181315e-005 -4.64351731e-004 -1.25367823e-003
      -5.21375157e-004 -5.86751412e-005 6.97836731e-005 3.21989297e-004
      4.27161431e-004 -5.83583387e-005 3.68875539e-004 -8.23420880e-004
      -1.04175846e-003 -7.81250827e-004 -7.84451084e-004
      -4.82090894e-004 -1.08222675e-003 -7.42927659e-004
      -2.62083631e-004 -3.22814740e-004 -1.16219366e-004 2.02534153e-004
      2.02563067e-004 2.24888554e-005 -1.57506038e-005 -5.35388011e-004
      -5.79839223e-004 -1.26349647e-003 -1.10118731e-003
      -6.94310875e-004 -3.90356174e-004 -8.82503169e-004
      -1.08743203e-003 -1.81051122e-003 -1.35049853e-003 1.92768028e-004
      4.14383940e-005 -9.05590132e-005 -8.17860011e-004 -9.47987079e-004
      -8.54834565e-004 6.74474693e-004 4.77212860e-004 5.98531915e-004
      -5.73552752e-005 2.51749967e-004 -1.31783963e-005 -1.92050975e-005
      8.63954134e-004 1.41386106e-003 1.77342037e-003 1.76973525e-003
      3.45595879e-004 -8.15244974e-004 -3.74921161e-004 -8.57893960e-004
      -5.75266138e-004 -1.45730947e-003 -2.08921800e-003
      -1.10400748e-003 -1.40520057e-003 -1.81952689e-003
      -1.97888212e-003 -1.98427658e-003 -1.21907995e-003
      -8.60915519e-004 -1.21043820e-003 -1.51122792e-003
      -1.27251109e-003 -9.52092290e-004 -3.13132012e-004 5.15823893e-004
      -2.90271564e-005 1.49797372e-004 1.23646262e-003 1.00736957e-004
      4.07824584e-004 9.05644556e-004 1.56787527e-003 8.00233684e-004
      1.62908202e-003 1.03479833e-003 8.94414028e-004 1.00368238e-003
      1.69233861e-003 2.33534980e-003 2.16478505e-003 2.03675195e-003
      3.39815533e-003 4.08970378e-003 2.95336545e-003 2.30503618e-003
      3.23974667e-003 3.10423877e-003 1.41548272e-003 9.80609329e-004
      6.53179304e-004 -6.24102831e-004 -3.70231573e-004 -4.49089450e-004
      -1.38655087e-004 2.42785274e-004 6.15758356e-004 8.83052780e-005
      2.66555755e-004 -3.06489848e-004 6.39282589e-005 -6.29047689e-004
      -3.13204655e-004 -1.82545860e-004 -3.01302527e-004
      -5.06635464e-004 -5.41989808e-004 -7.78400747e-004
      -6.43795356e-004 -4.64243582e-004 -7.54414941e-004 1.21483106e-004
      -1.15405273e-004 -3.82188882e-004 -6.68165681e-004
      -1.14407006e-003 -9.73105372e-004 -1.16465648e-003
      -1.31543027e-003 -1.20627775e-003 -1.33408664e-003
      -1.05272210e-003 -1.13428547e-003 -6.46776985e-004
      -6.87695632e-004 -4.00495133e-004 -2.12437517e-004
      -3.90799905e-005 1.25359629e-005 4.32688139e-005 -7.74222281e-005
      1.42679972e-004 -1.09404202e-004 1.25989303e-004 3.87784326e-004
      4.66937287e-004 -3.23713233e-004 -8.92612807e-005 -2.18190326e-004
      -8.62466259e-005 -1.00704397e-004 -6.17025216e-005
      -1.33529484e-005 2.10597082e-005 -1.56097740e-005 -9.29967282e-005
      -2.10295966e-005 -6.40162471e-005 -2.09499940e-005
      -5.97249964e-005 -1.00089615e-004 -9.39144302e-005
      -8.23622977e-005 -7.56807349e-005 -1.22930898e-004
      -9.81425474e-005 -1.68626560e-004 -1.38567280e-004 2.83164245e-005
      4.07483094e-005 1.76092453e-005 -4.24549362e-005 -1.16735348e-004
      -2.26086209e-004 -4.07258456e-004 -6.13335054e-004
      -7.75006018e-004 -8.31643178e-004 -5.60150307e-004
      -4.00962192e-004 -2.48308061e-004 -2.40508831e-004
      -2.13557447e-004 -1.47753308e-004 -2.03613527e-004
      -1.48161183e-004 -3.13480094e-004 -6.24180830e-004
      -1.01040641e-003 -7.78415182e-004 -5.45558636e-004
      -4.22142970e-004 -3.65824410e-004 -4.16971394e-004
      -3.86079948e-004 -3.54546442e-004 -4.05603554e-004
      -4.90023987e-004 -2.44593684e-004 -3.71541537e-005
      -2.89154355e-004 -6.79717596e-006 4.99969290e-004 1.33724825e-004
      -5.66021918e-005 3.09299066e-004 -6.00209460e-004 -4.53006302e-004
      -3.21592175e-004 -1.15431882e-004 -2.63099035e-004 5.81712578e-004
      1.01570867e-003 9.14700195e-006 -2.02173673e-004 3.06809292e-004
      5.19897381e-004 -1.48520296e-004 -1.45791552e-003 -4.58851049e-004
      -3.15665035e-004 -8.87446571e-004 -1.44348101e-004
      -4.58689501e-005 -1.24282588e-003 -1.82659226e-003
      -7.54061621e-004 -1.18504127e-003 -7.73268170e-004
      -1.21914258e-003 -1.17500231e-003 -1.67833560e-003
      -2.05495441e-003 -1.37056655e-003 -9.32060648e-004
      -1.13953743e-003 -1.42068730e-003 -6.92131522e-004
      -5.50258963e-004 3.70957423e-004 6.09695737e-004 1.21902348e-003
      -1.01343344e-003 7.61925941e-004 1.27206580e-003 1.14453654e-003
      3.46476212e-004 4.24804894e-004 5.09091886e-004 4.39495139e-004
      5.34002553e-004 -6.67477376e-004 1.02021161e-003 1.30900950e-003
      4.18317679e-004 2.03229254e-004 -2.39289948e-004 -1.05925719e-003
      -7.25619262e-004 -1.18298584e-003 -1.95171603e-003
      -2.13859975e-003 -2.93806242e-003 -3.25227273e-003
      -1.38158607e-003 -1.47860905e-003 -1.07660645e-003
      -1.55528006e-003 -1.25983055e-003 -7.26466184e-004
      -6.79456396e-004 -1.70192006e-003 -7.36245594e-004
      -9.39648715e-004 -1.63629738e-004 3.58878868e-004 -7.31513370e-004
      -5.85645379e-004 -2.84598471e-004 -2.20867238e-004
      -1.00716169e-003 -5.76650724e-004 -3.79335048e-004
      -4.80088929e-005 -3.98392993e-004 1.18110911e-004 -1.42627818e-004
      6.20742561e-004 7.94211170e-004 9.84972576e-004 1.09296606e-003
      1.30057495e-004 7.10816530e-004 2.55636894e-003 3.13212792e-003
      2.71412940e-003 2.08349456e-003 1.25027902e-003 1.25980633e-003
      1.39260571e-003 1.40347064e-003 9.92086716e-004 2.34836392e-004
      8.06329655e-004 1.70642597e-004 -3.19657905e-004 -8.09102552e-004
      -1.10204285e-003 2.57698935e-004 7.35423935e-004 7.44217890e-004
      8.49700707e-004 5.38452063e-004 2.51716883e-005 -4.14216338e-004
      -6.37542980e-004 -5.26110060e-004 -5.06971264e-004
      -6.06930291e-004 -4.08721207e-005 -5.79908810e-005
      -9.76528463e-005 -5.00459631e-004 -2.18797082e-004
      -5.59173641e-004 -1.31724356e-003 -1.30292610e-003
      -1.13496312e-003 -1.33131735e-003 -1.18585106e-003
      -1.17715541e-003 -7.77359994e-004 -7.14600785e-004
      -3.51898547e-004 -3.11435753e-004 -4.77930502e-004
      -4.41013864e-004 -2.38366963e-004 -6.82185128e-005
      -2.33375293e-004 5.43761707e-005 -1.96751294e-004 1.45935206e-004
      2.86442635e-004 3.59743106e-004 3.20569234e-004 -2.26586853e-004
      -1.75806010e-004 -1.19703480e-004 -9.65526851e-005
      -6.61529557e-005 -7.46433871e-005 -2.48280612e-005 4.11940455e-005
      2.77748259e-005 -1.56354836e-005 -5.05150347e-005 -2.68995427e-005
      -1.78512219e-005 5.45274670e-005 -2.65156741e-005 2.56137519e-005
      8.20089008e-006 -5.74347177e-005 -4.89908889e-005 -9.30421593e-005
      -9.21106257e-005 -1.09946559e-004 2.25856274e-005 3.91953727e-005
      1.66549898e-006 -6.19091516e-005 -1.01962200e-004 -1.30937289e-004
      -1.53775356e-004 -3.13569617e-004 -6.35629869e-004
      -8.63467518e-004 -8.24303075e-004 -5.36422536e-004
      -3.35886842e-004 -2.57246138e-004 -2.21049413e-004
      -1.68393191e-004 -2.19607537e-004 -1.72068074e-004
      -3.12991615e-004 -5.85013418e-004 -8.50643846e-004
      -6.08735310e-004 -4.57926770e-004 -3.20264284e-004
      -2.77504878e-004 -3.66068678e-004 -3.97665950e-004
      -4.58144990e-004 -3.65098036e-004 -2.58863274e-005 1.42747260e-004
      5.90253012e-006 5.73304424e-005 -2.08842102e-004 -7.86025543e-004
      -2.11922306e-004 3.25648725e-004 6.51765149e-004 -1.83215598e-004
      1.85150566e-004 -5.65717695e-004 -8.06829121e-005 -7.36683287e-005
      3.19337152e-004 3.57599813e-004 -4.94733627e-004 -3.82629893e-004
      -1.08179939e-003 -1.59207091e-003 -4.20801516e-004
      -6.08250790e-004 4.61438089e-004 3.88975022e-004 -4.30028595e-004
      -8.04468524e-004 -6.45160966e-004 -7.81917537e-004
      -1.42788736e-003 -1.53647666e-003 -1.73890591e-003
      -2.78605404e-003 -3.03117558e-003 -2.33910582e-003
      -1.77646650e-003 -2.13531731e-003 -1.06140517e-003
      -1.25506264e-003 -8.51052231e-004 -7.63612567e-004
      -8.73892219e-004 -1.01565849e-004 9.21061204e-004 8.48098192e-004
      -1.13702845e-003 -9.73781862e-005 1.05950353e-003 3.32931144e-004
      4.48321116e-005 5.52479723e-005 -1.97766785e-004 7.18691095e-004
      2.84202513e-004 9.13838376e-005 -5.18771762e-004 2.36085281e-004
      5.88170020e-004 -5.19236492e-004 -4.43789875e-004 -5.88471477e-004
      -1.19761098e-003 -9.79537261e-004 -1.38179143e-003
      -2.14886153e-003 -1.77343155e-003 -1.99968042e-003
      -2.59127910e-003 -1.88694242e-003 -1.51365984e-003
      -9.56175500e-004 -8.84043111e-004 -1.40241452e-003
      -4.75751789e-004 -9.37331177e-004 -9.46739863e-004
      -7.64360419e-004 -1.14670163e-003 -7.53492059e-004
      -2.43290531e-004 -9.25346510e-004 -7.28115090e-004
      -2.27003125e-004 1.63787736e-005 -6.20780920e-004 -2.90826312e-004
      -1.01596481e-004 -1.56944676e-004 -1.03844024e-004 2.23876414e-004
      5.21223919e-005 2.43022907e-004 5.75345010e-004 6.23294909e-004
      3.89848341e-004 -3.46023240e-004 -6.38027966e-004 1.45171408e-003
      2.36986717e-003 2.14690575e-003 1.44950312e-003 1.62204227e-003
      2.23178160e-003 2.09717429e-003 1.05783076e-003 8.52519472e-004
      3.87079257e-004 4.21000295e-004 3.40253289e-004 1.44099549e-005
      -2.73585523e-004 9.23435146e-005 7.41934346e-004 -1.89569619e-004
      -3.57373792e-004 3.74002440e-004 5.28760720e-005 -1.86510311e-004
      8.11117861e-005 1.69766528e-004 -3.21329193e-004 -7.70947139e-004
      -5.98466024e-004 9.06112429e-004 7.07781524e-004 1.08153406e-004
      -4.15693794e-004 -1.33765614e-004 -1.98865338e-004
      -3.73715855e-004 -1.25430967e-003 -1.04063470e-003
      -1.26918568e-003 -1.17455551e-003 -9.51907539e-004
      -3.58211139e-004 -4.95465414e-004 -4.38205985e-004
      -3.23951332e-004 -3.89015622e-004 -6.22852764e-004
      -4.19881952e-004 -8.89093732e-004 -5.93653182e-004
      -5.50823461e-004 -3.15003243e-004 3.23137501e-005 3.21902626e-004
      2.95567734e-004 2.13661959e-004 -1.01658188e-004 -3.59986036e-004
      -2.57919775e-004 -2.76862876e-004 -1.84928504e-004
      -1.24227081e-004 -1.58173003e-004 -5.63758367e-005
      -1.19462529e-004 -8.81308279e-006 -3.93091977e-005
      -2.92611658e-005 7.12084147e-005 2.94251313e-005 4.78818547e-005
      2.45066294e-005 4.95526110e-005 -8.89643218e-007 1.27055528e-005
      -6.25653920e-005 -4.64939585e-005 -1.23383952e-005
      -6.13306329e-005 -1.18161743e-005 -6.78845608e-005
      -4.54718065e-005 -1.17287564e-004 -1.79237133e-004
      -1.40799690e-004 -2.24893156e-004 -3.51534080e-004
      -6.17331243e-004 -8.68507545e-004 -6.96250994e-004
      -4.16227500e-004 -2.40979454e-004 -2.02676500e-004
      -1.94438078e-004 -1.60099007e-004 -1.64640544e-004
      -2.68073898e-004 -4.99940012e-004 -8.95968813e-004
      -7.71209889e-004 -4.91189421e-004 -3.23832181e-004
      -2.76197388e-004 -3.25480418e-004 -2.57151871e-004 7.18089213e-005
      5.91092357e-005 -5.69331052e-004 -6.99807482e-004 -4.75817913e-004
      -3.50068382e-004 -5.53737802e-004 -6.19191967e-004
      -6.86948188e-004 -5.43898146e-004 8.56023253e-005 -1.06111234e-004
      -1.29297705e-005 -5.54228100e-005 -7.90348276e-005
      -1.37535782e-004 -9.34349897e-004 -1.43207249e-003
      -6.23259984e-004 2.39066256e-004 -3.32641706e-004 -6.37681922e-004
      -1.00650119e-004 3.88488173e-004 2.27248252e-004 3.07647133e-006
      -7.31593871e-004 -1.40441209e-003 -1.86187529e-003
      -1.42420095e-003 -1.59231701e-003 -1.98330381e-003
      -2.43342295e-003 -2.41035479e-003 -1.95923983e-003
      -1.57404540e-003 -1.71452027e-003 -1.32219028e-003
      -9.14610398e-004 -4.50622611e-004 -1.09257805e-003
      -1.67634001e-003 -7.33245543e-005 8.64675560e-004 1.75355846e-004
      -1.53504880e-004 -1.15042226e-003 9.82142228e-005 7.08797015e-004
      1.22569199e-003 1.04676187e-003 4.19291289e-004 -3.17318772e-004
      -2.41393238e-004 -5.07543329e-004 -1.10503624e-003
      -1.26312417e-003 -7.01172685e-004 -2.53531500e-004 1.45331447e-004
      2.06953351e-004 -6.46592118e-004 -1.01479143e-003 -7.48668273e-004
      -8.98613769e-004 -9.24141379e-004 -1.69142883e-003
      -1.69583911e-003 -1.72677555e-003 -1.68249453e-003
      -1.39902765e-003 -1.27323461e-003 -6.98168820e-004
      -1.19219054e-004 -1.49580417e-004 -8.57027771e-004
      -1.88291509e-004 -7.54562032e-004 -5.60048153e-004 8.20668138e-005
      -1.36864386e-004 -3.59450205e-004 -2.59180757e-004
      -2.77071202e-004 6.21341285e-004 -1.22207464e-004 1.76895759e-004
      -3.04045116e-005 -8.95424018e-005 -1.90393810e-004
      -1.05562140e-004 4.22291749e-004 -1.60188647e-004 -2.02364172e-004
      2.59090157e-004 4.85214368e-005 -1.34706515e-005 7.73061765e-005
      2.26180055e-004 4.01668251e-004 1.42966816e-003 1.52184558e-003
      -6.15408717e-005 1.97776812e-004 3.94105882e-004 -1.26599683e-003
      -5.49761520e-004 -4.08964206e-006 1.01445930e-003 1.79687643e-003
      1.27589446e-003 3.36208614e-004 5.61189772e-005 6.82071186e-005
      -4.84583987e-004 -4.57629649e-004 7.52727938e-005 1.02894008e-003
      2.02348412e-004 1.69079372e-004 2.54226237e-004 -7.92165301e-005
      -4.59349103e-004 1.95625144e-005 1.37778072e-004 2.01203467e-004
      3.54111893e-004 2.19814217e-004 8.18857370e-006 4.48536121e-005
      -1.39135445e-004 3.14150748e-005 -1.08140195e-003 -5.07782912e-004
      -8.26512347e-004 -4.53314278e-004 -3.85913911e-004
      -6.45913009e-004 -7.21464690e-004 -7.44295947e-004
      -5.57060586e-004 -5.75932267e-004 -6.76867377e-004
      -5.98635990e-004 -4.84384567e-004 -6.23148575e-004
      -6.29585527e-004 -2.93956313e-004 -3.47457244e-004
      -3.16483784e-004 1.76934947e-004 1.70862240e-005 -1.60026888e-004
      -3.35066376e-004 -2.97791063e-004 -2.22611008e-004
      -1.81746233e-004 -2.29708603e-004 -1.16874879e-004
      -1.62603930e-004 -8.54590762e-005 -5.75322447e-005
      -9.15873898e-005 -1.37687330e-005 5.71240671e-005 1.62855707e-004
      7.54658104e-005 1.03577819e-004 3.35592267e-005 5.84649497e-005
      2.84198140e-005 5.22980690e-006 1.54234949e-005 -1.39125896e-005
      -1.86426878e-005 -1.78875809e-004 -1.07304098e-004
      -1.06567597e-004 -1.26338098e-004 -2.01759656e-004
      -2.33198210e-004 -2.24788411e-004 -4.01070167e-004
      -6.68094377e-004 -9.23749059e-004 -8.11570906e-004
      -5.36770094e-004 -2.58931977e-004 -2.30945516e-004
      -2.54761428e-004 -2.25932861e-004 -2.36609965e-004
      -4.28148545e-004 -7.85545330e-004 -7.20987329e-004
      -5.72173099e-004 -3.71824397e-004 -4.91422194e-004
      -3.40958446e-004 -4.69706021e-004 -5.93138568e-004
      -4.13705071e-004 -4.28813481e-004 -3.15219804e-004
      -9.35171702e-005 -3.77626042e-004 -5.68847521e-004
      -3.34177639e-005 -9.07097419e-005 -9.98287142e-005
      -3.46348766e-004 -4.74933768e-004 -6.77843869e-004
      -1.26477343e-003 -8.87378352e-004 -2.80981942e-004
      -6.73585455e-004 -1.01356338e-004 -6.49607246e-005
      -1.40124641e-004 -1.36770905e-004 5.07057062e-004 9.07257083e-004
      -3.20823019e-004 -1.19882764e-003 -4.67221747e-004
      -8.22811198e-005 -2.07008779e-004 -9.64984007e-004
      -1.79457513e-003 -3.03733209e-003 -3.39224399e-003
      -3.59745906e-003 -2.20000441e-003 -1.40514004e-003
      -1.75872981e-003 -1.79320620e-003 -2.09178007e-003
      -2.07061972e-003 -9.78280674e-004 -2.24020085e-004 4.84505348e-004
      1.80000660e-003 1.39292883e-004 4.96475375e-004 7.20957294e-004
      9.27493966e-004 9.27908171e-004 -2.67392898e-004 -1.20615680e-003
      -1.53494894e-003 -1.48111256e-003 -1.42834987e-003
      -1.69566914e-003 -1.93677261e-003 -1.09085161e-003
      -2.01049959e-004 -5.35221770e-004 1.74802863e-005 3.23328248e-004
      -1.44403399e-004 -1.06375827e-003 -8.59821565e-004
      -1.23256876e-003 -9.09946102e-004 -1.39934442e-003
      -7.66522251e-004 -9.15163313e-004 -1.29081204e-003
      -8.60857952e-004 -1.23348052e-003 -1.19755650e-003
      -1.31371128e-003 -6.77886361e-004 -7.36487855e-004
      -9.75838862e-004 -8.61522160e-004 -6.66770560e-004
      -5.99380655e-005 1.97818896e-004 -7.23450154e-004 -1.07995863e-003
      -6.99007418e-004 -7.71736493e-004 -7.91133381e-004
      -7.49091152e-004 -8.63028225e-004 -5.56820421e-004
      -4.74674074e-004 -1.76313144e-004 -2.53759645e-004
      -1.90868086e-004 6.60057267e-005 1.51943550e-005 1.11956018e-004
      1.93669446e-004 1.20534882e-004 2.15991982e-004 3.73754097e-004
      6.11081545e-004 6.22984255e-004 9.08725313e-004 4.08559572e-004
      -1.37039321e-003 -1.01671927e-003 -5.84706024e-004 3.19102255e-004
      3.88693181e-004 -3.26770154e-004 -2.77775602e-004 7.33437424e-004
      4.77965456e-004 -3.53077339e-004 -1.03608717e-003 -1.56049593e-003
      -2.14064657e-003 -8.61571461e-005 8.44134600e-004 1.14708219e-003
      1.20874355e-003 6.58398028e-004 8.36083549e-004 8.17670720e-004
      3.66076099e-004 3.12045333e-004 2.23742260e-004 1.03782586e-004
      7.23361591e-005 1.69610976e-005 -2.80606822e-004 1.67450140e-004
      9.47510562e-005 -5.12965606e-004 -3.44866363e-004 -1.17588975e-003
      -1.25181384e-003 -1.05763262e-003 -6.14141405e-004
      -3.64705513e-004 -3.49615380e-004 -5.13811654e-004
      -6.94903661e-004 -6.77947712e-004 -6.01915002e-004
      -6.18368911e-004 -3.85234569e-004 -3.36060650e-004
      -2.16374130e-004 -1.36472256e-004 -3.89980822e-004
      -2.70860291e-005 1.52313572e-004 -3.25280533e-004 -3.43337539e-004
      -3.26814217e-004 -2.87425326e-004 -2.58252636e-004
      -2.47455406e-004 -2.42489346e-004 -1.35997674e-004
      -1.79574999e-004 -1.56584720e-004 -7.42320626e-005
      -8.60452292e-006 2.07093344e-005 3.08208510e-005 5.44338473e-005
      8.27197509e-005 9.11863535e-005 1.02439102e-004 1.29491236e-004
      9.24545238e-005 4.45584374e-005 -5.16716100e-005 3.02506887e-005
      -1.28382337e-004 -1.68081358e-004 -2.02849580e-004
      -2.25422889e-004 -1.84475401e-004 -1.58555908e-004
      -2.33817729e-004 -2.74489023e-004 -4.60629264e-004
      -7.57574860e-004 -8.31176294e-004 -8.35953339e-004
      -5.45959745e-004 -3.97485303e-004 -2.97645543e-004
      -2.69152399e-004 -2.91514589e-004 -4.19615913e-004
      -7.34584813e-004 -6.79302670e-004 -4.91910789e-004
      -3.42932850e-004 -6.54242234e-004 -2.97295337e-004
      -2.32573133e-004 -3.42265761e-004 -4.12426074e-004
      -4.95105167e-004 -6.26687892e-004 -4.54371213e-004 1.06022235e-004
      5.88631025e-004 -7.99917558e-004 -1.08778430e-003 -1.02675962e-003
      -7.25312741e-004 -1.56049582e-003 -1.13624067e-003
      -2.63940979e-004 -9.29829039e-005 -9.94417569e-005
      -4.67857986e-004 1.91980544e-005 9.16151039e-005 4.71864390e-004
      6.21857762e-004 4.71806066e-004 -4.68621147e-004 -4.74630389e-004
      -1.72010029e-003 -1.31278520e-003 -1.74045609e-003
      -1.85353414e-003 -1.21400040e-003 -1.55381998e-003
      -2.54923687e-003 -3.25915008e-003 -2.79895891e-003
      -2.88737006e-003 -2.60259723e-003 -3.26874200e-003
      -2.91113555e-003 -1.71419466e-003 -1.08128146e-003
      -4.14497801e-004 1.07136684e-005 1.71514577e-003 2.13919138e-003
      1.40081672e-003 5.68885705e-004 8.62594170e-004 4.13431233e-004
      -1.81781570e-003 -7.02195801e-004 3.26126377e-004 -9.24945416e-005
      -6.85035717e-004 -7.60528201e-004 -9.46250453e-004
      -1.62258267e-003 -1.59059500e-003 -1.83218415e-003
      -1.98253384e-003 -5.36228006e-004 -2.29725818e-004 3.29298229e-004
      -8.53866804e-005 -3.84123123e-004 -2.82657071e-004
      -1.33678710e-004 -3.61219165e-004 -2.20664719e-004
      -1.19174656e-004 -5.96328289e-004 -8.97872145e-004
      -9.23046086e-004 -9.86055820e-004 -7.59093207e-004
      -1.03146117e-003 -8.86667694e-004 -4.59558622e-004 6.18389604e-005
      7.61553456e-005 3.89833818e-004 2.34505191e-004 -5.22410497e-004
      -7.76861794e-004 -8.45993287e-004 -2.71664467e-004
      -3.69124551e-004 -1.01021193e-004 -2.69239856e-004
      -9.08567818e-005 2.14718413e-004 -9.25127642e-006 2.11502163e-004
      1.11953421e-004 1.81643645e-005 -1.10243618e-005 -5.56935556e-004
      -4.11943300e-004 -6.76403142e-005 -2.70501696e-005
      -5.26414769e-005 -2.36635009e-004 -6.18990802e-004
      -6.13707889e-005 5.47827804e-004 -2.65286799e-004 -7.01067562e-004
      -1.05291125e-004 1.76814312e-004 3.69677815e-004 -1.02721574e-003
      -1.62727979e-003 -8.08806857e-004 -7.48335093e-004
      -7.90261955e-004 -9.55543772e-004 -9.53246490e-004
      -1.23962061e-003 -1.32671464e-003 1.85611978e-004 7.00958481e-004
      8.95886915e-004 7.59283255e-004 3.42427840e-004 1.38176401e-004
      4.11112298e-004 3.64157109e-004 5.44822105e-005 2.58394401e-004
      4.83444019e-004 5.66288712e-004 5.36048356e-006 1.80143994e-004
      3.26565030e-004 1.24703263e-004 2.17364122e-005 -3.07585840e-004
      -1.08445971e-003 -1.40904647e-003 -1.30489946e-003
      -1.12228375e-003 -1.03548553e-003 -1.15078711e-003
      -8.83830537e-004 -7.94335385e-004 -8.50110664e-004
      -3.89078778e-004 -4.09316679e-004 -5.39195426e-005
      -5.23473027e-005 5.78772233e-005 -3.00734191e-005 -2.58720156e-005
      -1.39902731e-005 1.02231774e-004 -2.53186823e-004 -4.63882665e-004
      -3.84692976e-004 -3.37178033e-004 -2.39212473e-004
      -1.99085247e-004 -1.97582325e-004 -1.36012561e-004
      -1.14181610e-004 -7.17649964e-005 -6.47783236e-005 7.81050915e-007
      2.64975570e-005 3.69541885e-005 9.16200152e-005 9.63152634e-005
      6.71556190e-005 7.62139389e-005 1.37631694e-004 1.24913058e-004
      -7.33418055e-005 -1.00649348e-004 -1.15827039e-004
      -1.84806995e-004 -2.26797914e-004 -2.28681281e-004
      -1.81085721e-004 -1.94079679e-004 -2.60000961e-004
      -2.19333437e-004 -2.54861341e-004 -4.81753144e-004
      -6.78195094e-004 -8.80344422e-004 -8.04687385e-004
      -5.43428876e-004 -3.25202622e-004 -2.29402998e-004
      -2.86645081e-004 -3.49629205e-004 -6.38747471e-004
      -6.87555294e-004 -4.87952348e-004 -2.86602444e-004
      -3.60163016e-004 -4.92129300e-004 -4.86029894e-004
      -3.19039245e-004 -4.39618831e-004 -3.74471711e-004
      -3.72073991e-004 -5.48463606e-004 6.88298969e-005 2.97722901e-004
      -2.57946725e-004 -1.11319941e-005 -7.98933790e-004
      -8.17579974e-004 -1.20893191e-003 -1.35999802e-003
      -8.67790601e-004 -5.53229591e-004 -4.10357810e-004
      -3.42155661e-004 2.92177574e-005 5.24924471e-005 -1.95021043e-004
      -2.50373501e-004 -2.36982349e-004 -6.01718784e-004
      -1.35640870e-003 -2.23968737e-003 -2.09595659e-003
      -2.53089820e-003 -2.31409143e-003 -1.74854661e-003
      -1.73858064e-003 -2.26254459e-003 -2.20751273e-003
      -1.95645145e-003 -2.53475644e-003 -3.32131586e-003
      -2.93706148e-003 -2.47889035e-003 -1.95586169e-003
      -5.13975916e-004 -5.66536793e-004 -8.58210376e-004 8.77012033e-004
      7.67145655e-004 9.35816264e-004 3.36704630e-004 -8.32104415e-004
      -1.50603661e-003 -2.49941321e-003 -1.89256901e-003
      -1.03091181e-003 -9.63836559e-004 -7.67351768e-004
      -3.67123226e-004 -6.48167683e-004 -6.29560556e-004
      -4.66313737e-004 -6.39000384e-004 -1.19700993e-003
      -1.08190055e-003 -1.32847682e-003 -1.45379815e-003
      -6.46902306e-004 -4.44029225e-004 -1.68667306e-004
      -1.25895429e-004 1.51755565e-004 6.76382479e-005 4.20420460e-004
      -4.35617258e-005 2.58705841e-004 3.86615226e-004 -1.53348592e-005
      -3.45879875e-004 -7.01843703e-004 -1.56584123e-004
      -5.20660542e-004 -5.53198197e-006 2.19981201e-004 2.68777134e-004
      3.01591819e-004 1.85731551e-004 3.70037393e-004 2.44266557e-004
      -1.23235644e-004 -3.64199746e-004 -3.57241399e-004
      -3.37099016e-004 -3.72520066e-004 -4.37465322e-004
      -1.34038593e-004 -8.73980389e-005 -8.27634722e-005
      -5.54937287e-005 -6.21263229e-004 -3.94119153e-004 4.68105209e-005
      -1.45928425e-006 -2.62489484e-004 -7.21865508e-004
      -6.53716212e-004 1.41793862e-006 -1.67023973e-004 5.80661253e-005
      1.18934171e-004 -3.15340847e-004 -3.24683147e-004 -6.71225935e-005
      1.60985917e-004 -1.95505228e-004 -9.77994408e-004 -7.36394257e-004
      -9.74249095e-004 -2.28757039e-003 -1.75341347e-003
      -1.56231422e-003 -1.31499546e-003 -5.71785902e-004 7.23844452e-004
      1.41746807e-003 9.10709321e-004 -1.05152285e-004 1.15473231e-003
      5.04250929e-004 1.83038966e-004 7.47109152e-005 7.42138072e-005
      3.12504708e-004 8.56910367e-004 6.56454999e-004 6.67320390e-004
      6.83474122e-004 1.76277419e-004 1.75724781e-004 -2.68425269e-004
      -1.12006543e-004 -3.09682451e-004 -8.27856653e-004
      -9.34909156e-004 -1.25655020e-003 -1.17772596e-003
      -1.14418450e-003 -1.07847655e-003 -9.79593839e-004
      -1.17725262e-003 -8.60341243e-004 -9.70995694e-004
      -1.03654282e-004 -3.99672543e-004 -4.53903252e-004
      -2.42410664e-004 4.89260856e-005 -2.84595444e-004 -9.71849135e-004
      -3.01724416e-004 -4.08304302e-004 -4.43351484e-004
      -4.19392250e-004 -3.30880604e-004 -2.37413522e-004
      -1.50420805e-004 -2.13905427e-004 -1.60056967e-004
      -1.15462877e-004 -1.29409400e-005 4.60412703e-005 1.87530150e-005
      9.36722427e-005 1.08807180e-004 8.66473929e-005 6.59120924e-005
      1.14681636e-004 1.23294667e-004 1.26970539e-004 -1.44529316e-004
      -1.30441651e-004 -1.50435590e-004 -1.93651256e-004
      -2.17896697e-004 -2.43380753e-004 -2.86064838e-004
      -2.61630805e-004 -2.74046004e-004 -3.62001680e-004
      -3.51703173e-004 -3.67740780e-004 -5.00007067e-004
      -6.85590669e-004 -8.68623087e-004 -8.12475861e-004
      -5.36201289e-004 -3.30266950e-004 -3.00111220e-004
      -3.65770538e-004 -5.81818342e-004 -6.07785361e-004
      -4.95988003e-004 -2.58487242e-004 -2.54797429e-004
      -3.67104745e-004 -4.56237962e-004 -4.33343695e-004
      -5.76338382e-004 -6.07520458e-004 -3.74633033e-004
      -3.44976026e-004 2.23728148e-005 1.97245769e-004 -3.44083560e-006
      -5.45475516e-004 -5.55829494e-004 -1.12310494e-003
      -1.85058790e-003 -1.10438606e-003 -1.55665667e-003
      -1.61668553e-003 -1.46910630e-003 -1.35405944e-003
      -5.96213562e-004 -1.20946141e-004 -4.15072573e-004
      -1.11838162e-003 -1.37633237e-003 -1.71791995e-003
      -2.34103249e-003 -2.96551432e-003 -2.46341759e-003
      -2.37648981e-003 -3.11149424e-003 -2.75054947e-003
      -2.89107650e-003 -2.85606738e-003 -3.23202461e-003
      -2.13850709e-003 -7.57059897e-004 -1.05887582e-003
      -1.95781002e-003 -2.49622925e-003 -1.96139235e-003
      -1.82553730e-003 -7.73334817e-004 -1.15856412e-003
      -1.13571610e-003 -4.33441368e-004 -6.13633660e-004
      -7.34810077e-004 -1.32652977e-003 -7.91580707e-004
      -1.23880443e-003 -7.27939303e-004 -5.38682682e-004
      -2.24640062e-005 4.53244080e-004 -6.04714569e-006 -3.56522884e-004
      -7.45692465e-004 -7.67487392e-004 -1.04754127e-003
      -1.15555781e-003 -1.14056352e-003 -6.76487631e-004
      -1.15984597e-003 -1.59670145e-003 -1.00064883e-003
      -7.16052426e-004 -4.61248594e-004 -5.62862806e-005 1.57865099e-004
      4.27000865e-004 5.39711327e-004 5.30712074e-004 6.46495610e-004
      7.92793231e-004 5.38282911e-004 4.38509102e-004 5.06764278e-004
      1.91379761e-004 1.44318808e-004 4.95167042e-004 2.83337053e-004
      -3.10621836e-004 -1.59873205e-004 -1.89304774e-004
      -1.30132830e-004 -3.47671856e-004 -5.00963011e-004
      -3.42820014e-004 -2.63027556e-004 -3.24111694e-004
      -9.70314577e-005 -4.21097706e-004 -3.00784624e-004
      -1.42591292e-004 2.01154151e-004 -1.03929720e-004 1.50971828e-004
      3.64322404e-005 7.90963895e-005 5.07134537e-005 -5.97980106e-004
      -3.19544837e-004 -1.03515144e-004 -7.24536891e-004
      -1.04813534e-003 -8.61291424e-004 -1.92495019e-004
      -3.41622625e-004 -1.97997288e-004 2.73013313e-004 2.75691709e-004
      7.01023600e-005 -8.84955924e-004 -8.98427912e-004 -2.22277688e-003
      -2.30172044e-003 -2.98124133e-003 -2.49666697e-003
      -1.63236540e-003 -1.42441178e-003 -3.94505041e-004
      -8.80910200e-004 -5.61773013e-005 7.72442436e-004 1.15722440e-004
      -3.61993036e-004 -5.97254024e-004 -6.64438412e-004 1.33130423e-004
      3.08968360e-004 2.00121998e-004 3.62443214e-004 5.60254615e-004
      6.64599283e-005 1.04699706e-004 4.58788767e-004 6.00891944e-004
      4.14560636e-004 1.78568938e-004 -1.38658949e-003 -1.18237291e-003
      -7.24600744e-004 -8.56903673e-004 -7.52786349e-004
      -7.71015359e-004 -1.00039598e-003 -5.34899416e-004
      -5.20075031e-004 -5.29344485e-004 -4.99385467e-004
      -2.51854945e-004 -7.96503038e-004 -1.14454342e-004
      -2.49470235e-004 -3.58479563e-004 -2.03584452e-004
      -2.00135284e-004 -4.58459806e-004 -4.98829526e-004
      -4.24644357e-004 -3.95304669e-004 -3.03611829e-004
      -3.06042843e-004 -2.60243687e-004 -2.01419418e-004
      -6.59839425e-005 2.43055747e-005 2.50317335e-005 5.60153876e-006
      7.87476820e-005 8.11350474e-005 1.08362226e-004 5.26793847e-005
      6.96452626e-005 1.23762671e-004 -1.87491329e-004 -2.22758739e-004
      -1.80780480e-004 -2.32674865e-004 -2.07019853e-004
      -2.27130222e-004 -2.77506886e-004 -3.27935821e-004
      -3.48909321e-004 -3.76596814e-004 -3.68734385e-004
      -3.54290823e-004 -4.17794887e-004 -4.31214867e-004
      -6.88522938e-004 -8.33971950e-004 -8.13037215e-004
      -4.84295102e-004 -3.93802184e-004 -4.30019281e-004
      -5.36511594e-004 -6.33839751e-004 -6.09588053e-004
      -5.54442639e-004 -8.00417853e-004 -6.44129177e-004
      -5.20460831e-004 -4.68251412e-004 -3.59386235e-004
      -5.53656195e-004 -5.74652338e-004 -3.62507941e-004
      -2.50270270e-004 -7.94387190e-004 -5.37599146e-004 6.93664915e-005
      4.23291873e-004 -1.88057835e-004 -8.61019944e-004 -1.25923473e-003
      -1.42207695e-003 -1.74646720e-003 -1.61903398e-003
      -8.65251815e-004 -6.89312408e-004 -1.02466636e-003
      -1.13389746e-003 -1.58137665e-003 -1.98115571e-003
      -1.64890941e-003 -1.90627296e-003 -2.69245985e-003
      -3.15567246e-003 -2.66970764e-003 -2.66365428e-003
      -3.62559780e-003 -3.12965014e-003 -3.80516355e-003
      -3.93530494e-003 -2.72555836e-003 -6.67950371e-004
      -8.37022904e-004 -1.36403739e-003 -1.87429704e-003
      -2.03826511e-003 -1.98215363e-003 -1.99146266e-003
      -1.59633544e-003 -9.31791903e-004 -1.20189833e-003
      -9.62178281e-004 -8.66249553e-004 -2.36431260e-005 3.25660949e-004
      -5.13748906e-004 -1.62558153e-003 -3.74760624e-004
      -2.09883019e-005 -4.58798837e-004 -7.97425979e-004
      -3.89771216e-004 -3.62228107e-004 -2.72951555e-004
      -4.82549745e-004 -9.31956165e-004 -4.40487522e-004
      -7.69540959e-004 -6.47359411e-004 -1.08560419e-003
      -6.88655302e-004 -8.48963275e-004 -5.13381325e-004
      -4.23997175e-004 2.81047076e-004 3.93835886e-004 4.82795760e-004
      -3.11770360e-004 -2.29966565e-004 -2.96610233e-004
      -2.56945932e-004 5.30365469e-005 5.79838699e-004 3.53924028e-004
      -4.71782878e-005 -7.59654940e-005 3.39218212e-004 2.27379918e-004
      2.34443669e-005 5.46057941e-004 2.72277102e-004 3.67960602e-004
      3.77312914e-004 2.03587435e-004 -1.01832948e-005 5.72943100e-006
      1.42818040e-004 2.38730529e-004 3.85583757e-004 3.09578638e-004
      5.62600035e-004 9.18543898e-004 8.43609567e-004 6.28463284e-004
      2.21208131e-004 7.56300578e-005 2.22250659e-004 2.96747079e-004
      -1.25512408e-004 -9.41799080e-004 -4.50208492e-004
      -3.39058432e-004 -7.88182253e-004 -5.42481546e-004
      -2.68880889e-004 -6.00445383e-005 -2.44181342e-006 1.09662229e-004
      -3.87002627e-004 -1.22273690e-003 -2.10735481e-003
      -2.86731380e-003 -3.09836166e-003 -2.89674592e-003
      -2.54570949e-003 -2.04324303e-003 -2.51957681e-003
      -2.19180761e-003 -1.31316041e-003 -1.71147374e-004 1.24210346e-004
      -3.43942520e-004 -8.06141354e-004 -1.73273706e-003
      -3.01871769e-004 4.65062709e-004 1.55948772e-004 4.16188486e-005
      8.69015275e-005 1.79234397e-004 1.50947366e-004 1.72915636e-004
      1.54430643e-004 1.76423258e-004 1.07886844e-004 1.69201885e-004
      -4.24211175e-004 -7.52717548e-004 -9.19784361e-004
      -1.12340820e-003 -1.19451294e-003 -9.09903902e-004
      -2.04448937e-004 -6.37504330e-004 -1.04138872e-003
      -3.58053774e-004 1.75163674e-004 -3.82136437e-004 -2.82913476e-004
      -8.75508122e-004 -4.27334802e-004 -9.90505505e-005
      -1.19937409e-004 -2.46239098e-004 -4.61359741e-004
      -4.32182424e-004 -4.29782784e-004 -3.83773557e-004
      -2.71224941e-004 -2.46104522e-004 -1.71471474e-004
      -1.22759913e-004 -1.00964862e-004 -3.65455198e-005
      -1.31497036e-005 5.56853483e-005 9.85774386e-005 9.90349799e-005
      1.08205946e-004 1.65563906e-004 1.35720969e-004 -1.64321420e-004
      -2.45331932e-004 -2.76162202e-004 -3.09735507e-004
      -2.88174953e-004 -3.05249618e-004 -3.64960142e-004
      -3.80024547e-004 -3.24822060e-004 -2.65827170e-004
      -2.86096241e-004 -3.31873394e-004 -3.56758828e-004
      -3.85112478e-004 -4.04434919e-004 -6.20323932e-004
      -8.55315709e-004 -8.67196242e-004 -5.75725164e-004
      -4.81138821e-004 -4.69887018e-004 -5.30732563e-004
      -5.24663832e-004 -3.56970646e-004 -4.13316593e-004
      -4.14094684e-004 -5.08133089e-004 -6.15156896e-004
      -7.89151818e-004 -8.64353671e-004 -5.50059136e-004
      -4.94883978e-004 -1.02433178e-003 -3.43030260e-004
      -3.89527675e-004 3.10121890e-004 2.92259268e-004 4.17577772e-004
      -6.32815878e-004 -1.31860119e-003 -1.68388011e-003
      -1.42330490e-003 -1.54489026e-004 -7.43469922e-004
      -6.74391282e-004 -1.09500403e-003 -1.17681222e-003
      -1.70528656e-003 -2.41554924e-003 -2.70864973e-003
      -2.27173930e-003 -1.99757563e-003 -2.96962610e-003
      -2.66358512e-003 -2.81817815e-003 -3.51950689e-003
      -2.74604629e-003 -2.60504731e-003 -3.13151488e-003
      -2.46663974e-003 -1.28131371e-003 -1.33752811e-003
      -2.01653736e-003 -1.59447663e-003 -1.39167916e-003
      -1.13984640e-003 -4.38602932e-004 -3.70138267e-004
      -7.71846157e-004 -7.98440189e-004 -5.88058610e-004
      -3.88303015e-004 -8.37839689e-005 -5.72045683e-004
      -8.05246411e-004 -5.56730083e-004 -4.37320006e-004
      -7.25352380e-004 -7.25391903e-004 -8.57046471e-005 3.32861564e-005
      8.70327640e-005 1.26844927e-004 -3.75608448e-004 -8.59962718e-004
      -4.53165994e-004 -5.83291112e-004 -2.55576073e-004
      -3.08324466e-004 9.81490011e-005 -2.29069323e-004 -9.32634226e-004
      -4.86176577e-004 -8.98861181e-005 1.43626632e-004 -4.40961194e-005
      5.68185293e-004 9.46418906e-004 6.60925405e-004 5.48151555e-004
      7.79623457e-004 6.53858471e-004 4.83380107e-004 4.38979303e-004
      5.90772135e-004 5.18627465e-004 6.11445692e-004 4.60702140e-004
      6.54511561e-004 7.12876325e-004 9.09912400e-004 8.47792602e-004
      5.21234411e-004 5.41889807e-004 6.33684394e-004 3.80160112e-004
      2.21785624e-004 -1.61484975e-004 -2.13528794e-004 2.30761361e-005
      4.97336034e-004 1.01389200e-003 6.75781164e-004 1.07453449e-003
      8.86627939e-004 -1.20353161e-005 -2.88727140e-004 -4.08807449e-004
      -3.19059327e-004 -5.14074964e-005 -3.53862240e-004
      -7.51294196e-004 -2.77990446e-004 -9.46281070e-005
      -7.23606616e-004 -6.63664890e-004 -9.31181363e-004
      -5.13690757e-004 -4.77884343e-004 -1.44808262e-003
      -2.26395926e-003 -2.71647191e-003 -3.57901445e-003
      -2.88080471e-003 -1.94056216e-003 -2.86527351e-003
      -2.42777448e-003 -1.55081740e-003 -1.15365244e-003
      -8.70438060e-004 -6.40942249e-004 -6.38261496e-004
      -8.67019000e-004 -4.49954969e-004 -1.60402691e-004
      -1.09455999e-004 -8.33591330e-005 2.95922131e-004 4.48812818e-004
      4.13813104e-004 4.04054852e-004 1.97813744e-004 -9.58177625e-005
      4.26876904e-005 3.55985190e-004 -3.33724893e-005 -3.59890488e-004
      -6.86548534e-004 -6.30766561e-004 -3.37007834e-004
      -2.37369619e-004 -7.06214691e-004 -7.97057874e-004
      -3.03287088e-004 -3.90935893e-005 -3.29542207e-004
      -3.80234676e-004 -5.07609984e-005 -2.44924013e-004
      -5.10167563e-004 -9.51022259e-004 -5.69935015e-004
      -2.06959521e-004 -4.53061453e-004 -4.22447803e-004
      -3.76640470e-004 -4.06849402e-004 -2.75430997e-004
      -2.58378888e-004 -1.85185214e-004 -1.16844254e-004 4.07734187e-005
      5.67190546e-005 3.64951120e-005 9.15485998e-006 7.98189212e-005
      1.02388163e-004 9.25636559e-005 1.47371509e-004 1.96069843e-004
      -2.77293700e-004 -2.87650008e-004 -3.46532499e-004
      -3.42074374e-004 -4.10721230e-004 -3.92717193e-004
      -3.83795035e-004 -3.72304465e-004 -3.65365879e-004
      -3.86406609e-004 -3.72584705e-004 -3.74541036e-004
      -3.35151592e-004 -3.85991909e-004 -3.42458399e-004
      -4.90475155e-004 -6.97404786e-004 -9.92251211e-004
      -8.26037722e-004 -7.21780700e-004 -6.38636411e-004
      -6.32810115e-004 -2.01231524e-004 2.48502824e-004 8.17437012e-006
      -1.18413431e-004 -2.17850305e-004 -5.11426129e-004
      -7.59236398e-004 -9.35026561e-004 -1.39305904e-003
      -9.08960472e-004 -7.14374299e-004 -1.17657112e-003
      -4.53217857e-004 -6.24254653e-006 -1.93609339e-005
      -6.59183948e-004 -5.37083484e-004 -1.28295796e-003
      -9.70551395e-004 -8.26698437e-004 -7.81373587e-004
      -5.36401698e-004 -9.25690867e-004 -1.29821256e-003
      -2.17045331e-003 -3.08411033e-003 -3.50896106e-003
      -3.34390602e-003 -2.54193507e-003 -2.15215841e-003
      -2.37993710e-003 -2.91361194e-003 -3.60183371e-003
      -3.34767392e-003 -2.36618752e-003 -3.29228141e-003
      -2.76815984e-003 -2.42683291e-003 -1.47604605e-003
      -2.33869674e-003 -2.84525985e-003 -2.06100172e-003
      -1.02955766e-003 -9.34811716e-004 -1.99560498e-004
      -2.81635061e-004 6.83478138e-004 -1.03766193e-004 1.83637894e-004
      -1.09824375e-003 -1.34591165e-003 -2.48126948e-004 1.83151613e-004
      -2.34861218e-005 -5.05762524e-004 4.78573529e-005 9.05474662e-005
      -2.25620446e-004 2.34803854e-004 1.84920664e-005 -2.28329169e-004
      -1.89469865e-004 1.43604906e-004 9.71517293e-005 -5.15214808e-004
      -6.75240823e-004 -6.78540440e-004 -4.15070157e-004 3.13908349e-005
      1.92976295e-004 1.85242825e-004 2.08172874e-004 4.98877605e-004
      9.60459525e-004 1.00914272e-003 1.07328198e-003 1.37800863e-003
      7.22350262e-004 8.34920560e-004 9.03490058e-004 4.48903098e-004
      1.59776188e-004 4.76917165e-004 1.66932266e-004 6.46244735e-005
      2.94690108e-004 6.46538276e-004 7.52315100e-004 7.52937631e-004
      7.20647397e-004 7.17076182e-004 3.76135140e-004 -2.27950295e-005
      2.26972654e-004 8.78992490e-004 9.45280713e-004 6.44366140e-004
      8.35674116e-004 1.50125625e-003 9.47638880e-004 4.48929088e-004
      8.53279373e-004 4.26393206e-004 6.31202827e-004 9.25692555e-004
      5.63478330e-004 2.97457824e-004 -4.29399486e-004 -6.20807463e-004
      -2.93049088e-004 -5.49132412e-004 -1.55181129e-004
      -1.63471868e-005 -3.95165902e-004 -1.71278472e-004
      -2.73871119e-004 -7.36667134e-004 -1.31134607e-003
      -1.09275582e-003 -2.24513048e-003 -2.32047657e-003
      -3.23607447e-003 -3.33294156e-003 -2.89669447e-003
      -2.62531778e-003 -1.63662306e-003 -8.08988814e-004
      -6.74873241e-004 -7.76396831e-004 -4.72714310e-004
      -4.71058069e-004 -4.19624092e-004 -5.91420103e-004
      -3.03827459e-004 -1.56776252e-004 2.66196090e-004 -1.31901485e-004
      -1.70832180e-004 -1.20949204e-004 1.22200858e-004 -1.40754491e-005
      1.68393119e-004 4.25015925e-004 2.46979558e-004 -5.32502541e-004
      -7.54475361e-004 -8.55552556e-004 -4.75372944e-004
      -6.06386806e-004 -7.70856685e-004 -2.47150485e-004
      -3.17559257e-004 -5.17775537e-004 -7.78361806e-004
      -6.54945092e-004 -2.90395052e-004 -1.79582581e-004
      -3.77230230e-004 -5.37429354e-004 -4.43716737e-004
      -6.29244896e-004 -4.83227108e-004 -4.01992118e-004
      -4.57010232e-004 -4.69367544e-004 -4.06989566e-004
      -2.05093267e-004 -1.03121711e-004 -6.21977597e-005 5.79852931e-005
      1.97195459e-005 5.91589815e-005 1.73164663e-005 5.95774727e-005
      1.07139291e-004 1.21487348e-004 1.81718438e-004 1.91953237e-004
      -2.52121012e-004 -3.41540552e-004 -3.40127823e-004
      -3.18206119e-004 -3.94249946e-004 -3.94793897e-004
      -4.23151563e-004 -4.14842973e-004 -4.75717592e-004
      -4.29222331e-004 -3.92300601e-004 -3.56747303e-004
      -3.62653402e-004 -3.64162028e-004 -3.07150272e-004
      -4.00428427e-004 -5.45778952e-004 -7.46474601e-004
      -9.08151851e-004 -9.73563001e-004 -8.68499919e-004
      -5.42581314e-004 -3.43543245e-004 -2.56850937e-004
      -6.22855732e-005 1.17014919e-004 -2.07578298e-004 -1.62091659e-004
      -1.99304777e-004 2.02131487e-004 -5.15924883e-004 -1.41729100e-003
      -7.91760045e-004 -4.54919005e-004 -5.27289114e-004
      -7.32829794e-004 -7.68246362e-004 -5.34035149e-004
      -1.18830556e-003 -7.01674609e-004 -1.75944238e-003
      -9.82922968e-004 -5.46639378e-004 -9.02430795e-004
      -1.49282860e-003 -1.68327510e-003 -1.95389963e-003
      -2.25033169e-003 -3.71797127e-003 -3.65110813e-003
      -3.09925084e-003 -2.86206487e-003 -2.61283456e-003
      -2.13120226e-003 -1.62713602e-003 -2.41506589e-003
      -2.64730048e-003 -2.55219731e-003 -1.82981661e-003
      -4.89206926e-004 -9.29979316e-004 -2.18509184e-003
      -2.01163394e-003 -1.45558431e-003 -1.68432613e-004 6.23189204e-004
      -2.39589295e-004 -4.47495957e-004 -1.20003347e-003
      -1.04196509e-003 -1.70513894e-003 -1.56113342e-003
      -8.84047127e-004 -3.62352119e-004 -7.74547734e-005 1.13934249e-004
      3.29952949e-004 -9.56623262e-005 -7.12695837e-005 2.09871374e-004
      3.41736959e-005 -1.90886276e-004 -1.46019258e-004 6.59264188e-005
      7.20088137e-005 -8.47240299e-005 9.50141839e-005 -8.64723988e-005
      -1.62112497e-004 -8.54949303e-006 4.34466550e-004 6.05039357e-004
      6.80188823e-004 7.81522773e-004 7.99029425e-004 7.46093807e-004
      1.03595073e-003 9.88908694e-004 9.77696967e-004 6.40868791e-004
      5.05878415e-004 3.16147343e-004 2.12086874e-004 4.87586571e-004
      4.78763744e-004 1.34723537e-004 1.19590601e-004 2.86613475e-004
      3.79942881e-004 7.74002285e-004 7.11715664e-004 6.97300595e-004
      1.03133288e-003 6.06208283e-004 5.52016485e-004 3.22309032e-004
      6.38540601e-004 7.65687262e-004 9.64135572e-004 9.34670854e-004
      9.10005183e-004 7.80234172e-004 7.18131312e-004 5.94366749e-004
      6.57843659e-004 9.40186670e-004 9.82803875e-004 6.06523652e-004
      9.20038961e-004 -1.43830883e-004 4.97912115e-005 -3.66266147e-004
      -2.55037972e-004 1.31394254e-005 -2.99378007e-004 -4.27975698e-004
      -7.82201765e-004 5.02210925e-004 5.25397132e-004 2.43385162e-004
      -3.69113579e-004 -1.41113228e-003 -1.69290870e-003
      -2.46689818e-003 -3.07930494e-003 -3.55331087e-003
      -3.11398972e-003 -2.02817540e-003 -1.68427837e-003
      -1.14798627e-003 -7.17736781e-004 -1.78767979e-004
      -1.18285522e-003 -1.38030364e-003 -7.06547289e-004
      -6.26606692e-004 -1.51175584e-004 -4.87447105e-005 6.83553226e-005
      -1.15170296e-005 2.40740395e-004 3.17285710e-004 4.17425763e-004
      4.53614397e-004 6.17972109e-004 4.29066713e-004 -5.24820789e-005
      -1.46895749e-004 3.45592562e-005 -6.37339952e-004 -8.21567955e-004
      -1.64565223e-003 -4.40092466e-004 -1.28471162e-004
      -1.51116881e-004 -4.56273236e-004 -2.72732141e-004
      -3.11402866e-004 -9.80538171e-005 -9.10999370e-005
      -6.79033634e-004 -7.44468241e-004 -4.24723024e-004
      -3.79150239e-004 -5.90216543e-004 -4.65858466e-004
      -4.14681417e-004 -3.57078301e-004 -3.06401314e-004
      -1.21490477e-004 -2.77983909e-005 7.78138929e-005 1.42988734e-004
      1.67296806e-004 1.81116440e-004 2.06095923e-004 2.36469990e-004
      1.91724073e-004 2.27050885e-004 2.20299276e-004 -2.20241534e-004
      -2.92298879e-004 -3.63971922e-004 -3.65915883e-004
      -3.94337927e-004 -4.05052648e-004 -4.60553478e-004
      -4.45767451e-004 -5.09143109e-004 -5.06227079e-004
      -4.98501118e-004 -4.53219254e-004 -4.14845650e-004
      -3.43972788e-004 -3.20865336e-004 -3.67159257e-004
      -3.83078615e-004 -5.27042313e-004 -8.55824444e-004
      -1.13789889e-003 -1.17488927e-003 -1.01617782e-003
      -9.11899551e-004 -4.51973727e-004 2.55842344e-004 2.38757071e-004
      3.25218862e-005 -6.20009814e-005 -2.61263398e-004 4.96031891e-004
      2.11067949e-004 2.18655434e-004 -3.18315084e-004 -2.29680794e-004
      -3.39843769e-004 -1.01859379e-003 -5.80995926e-004
      -3.95502168e-004 -2.69152835e-004 -6.50718925e-004
      -1.33650424e-003 -1.37443142e-003 -5.86893933e-004
      -5.57868974e-004 -1.22128718e-003 -1.90508913e-003
      -2.84088147e-003 -2.67473771e-003 -3.40786343e-003
      -3.02421954e-003 -3.69011681e-003 -2.43145833e-003
      -1.75763469e-003 -2.12113094e-003 -2.13411590e-003
      -2.27501546e-003 -2.27332674e-003 -1.55205245e-003
      -1.57524459e-003 -1.26228109e-003 -8.02134571e-004
      -1.76926015e-003 -1.15581835e-003 -9.59459459e-004
      -1.10778131e-003 -8.20866262e-004 -1.52888388e-004
      -5.34916762e-004 -2.02296913e-004 -6.72079506e-004
      -1.15518027e-003 -4.22744371e-004 -6.26234047e-004
      -6.58714212e-004 -6.66266948e-004 -7.70546467e-005 2.08152109e-004
      2.78959124e-005 1.32912479e-004 1.32694637e-004 -3.08680086e-004
      -3.83318111e-004 5.86244232e-006 -1.49835236e-004 -1.70800718e-004
      -8.69190626e-005 -7.39940369e-005 2.21237191e-004 2.07371282e-004
      2.37029686e-004 4.64234618e-004 3.50696297e-004 6.14008575e-004
      7.74948101e-004 8.89399264e-004 8.46558192e-004 8.47078220e-004
      1.08360860e-003 1.00430287e-003 7.28412881e-004 1.15847168e-003
      8.43300018e-004 1.75854439e-004 1.23168240e-004 3.74170428e-004
      4.75787790e-004 2.84924725e-004 4.69887484e-004 7.04547216e-004
      4.15304268e-004 4.68408485e-004 4.76093672e-004 7.92077277e-004
      6.13419688e-004 1.81868149e-004 4.27979830e-004 5.84993570e-004
      6.68897177e-004 5.03454066e-004 5.89458621e-004 7.39497424e-004
      7.80672242e-004 7.56725320e-004 9.28455731e-004 9.55098018e-004
      7.53847300e-004 8.76783277e-004 9.18685517e-004 7.49891507e-004
      4.39089024e-004 7.61749106e-006 -1.16775322e-004 -3.54916810e-005
      2.76193226e-004 2.14617947e-004 -5.98851533e-004 -3.62490362e-004
      -4.40353178e-004 7.73975844e-005 3.40542116e-004 4.88537480e-004
      2.41504400e-004 -5.54129481e-004 -1.29026209e-003 -2.27666926e-003
      -2.23732321e-003 -2.23544426e-003 -2.54066894e-003
      -2.55333120e-003 -2.44129752e-003 -2.12322851e-003
      -2.13047140e-003 -2.12484738e-003 -1.57984474e-003
      -1.16932194e-003 -1.16471085e-003 -7.86092074e-004
      -1.36807197e-004 -1.31217937e-004 -2.92835175e-004
      -3.45861394e-004 4.57300834e-004 7.44674064e-004 5.05663978e-004
      3.59583239e-004 9.87569001e-005 5.14669460e-004 -1.04954333e-005
      -5.43404778e-004 -2.34725521e-004 -2.91830802e-004
      -4.48583683e-004 -1.62891913e-004 -3.92690039e-004
      -5.77698345e-004 -5.29480516e-004 -4.08629625e-004
      -1.72851578e-004 -3.85887513e-004 -6.13422366e-004
      -4.23256424e-004 -5.54907951e-004 -5.80998021e-004
      -6.12605829e-004 -4.30982240e-004 -5.01233560e-004
      -3.27179849e-004 -3.67801636e-004 -2.50185898e-004
      -4.24878381e-005 2.81092889e-005 9.48463348e-005 1.44856560e-004
      1.66245256e-004 1.96906913e-004 2.14732514e-004 2.59866065e-004
      2.85110902e-004 2.81380373e-004 2.51675752e-004 -2.53270788e-004
      -3.24597902e-004 -3.66306660e-004 -3.14774428e-004
      -3.50691524e-004 -3.55056342e-004 -3.85311258e-004
      -4.38092859e-004 -4.92219406e-004 -4.90589009e-004
      -5.28295233e-004 -5.29412297e-004 -4.86051111e-004
      -3.79633886e-004 -3.80600715e-004 -3.42684682e-004
      -3.18363833e-004 -3.84819781e-004 -6.76735712e-004
      -8.97370104e-004 -1.10330200e-003 -1.26244081e-003
      -1.16312876e-003 -5.58794069e-004 4.28276311e-004 6.21776926e-005
      3.81948659e-004 3.42931889e-004 2.46430718e-005 3.13336815e-004
      4.35746224e-005 -3.19776009e-004 -4.61913878e-004 -3.82548198e-004
      -9.82305937e-006 -3.99103243e-004 -7.01414945e-004
      -4.96418856e-004 -2.30970356e-004 -8.49031378e-004
      -8.80134990e-004 -5.80514665e-004 -7.58019567e-004
      -1.01271830e-003 -1.78409414e-003 -2.87620933e-003
      -4.24375944e-003 -4.30814037e-003 -1.93815853e-003
      -9.26175853e-004 -2.61534378e-003 -3.64733161e-003
      -2.67953170e-003 -2.04354757e-003 -2.61444994e-003
      -2.38762004e-003 -5.22438670e-004 -1.24712312e-003
      -1.57448254e-003 -2.05090968e-003 -1.76209316e-003
      -7.60024122e-004 -3.32554075e-004 -4.33160545e-004
      -1.57794333e-004 -3.90281202e-005 -3.20044899e-004
      -2.38703622e-004 -5.30125399e-004 -9.46404238e-004
      -8.24580275e-005 -2.82404566e-004 -8.07604665e-005
      -4.33692388e-004 -2.50488141e-004 2.95601494e-004 2.93284887e-004
      -8.25688476e-005 -3.87549691e-004 -6.25328743e-004
      -3.62777675e-004 -1.66044294e-004 -8.11758291e-005 9.58081364e-005
      3.05261812e-004 4.55146568e-004 5.79265587e-004 5.62612433e-004
      4.11294081e-004 5.07202989e-004 4.55916364e-004 5.69512660e-004
      7.06294901e-004 8.46599753e-004 1.02488755e-003 1.06552220e-003
      1.13004737e-003 1.06636318e-003 8.17170483e-004 1.02801435e-003
      9.95603623e-004 4.64689103e-004 1.59371964e-004 9.59531899e-005
      5.32439444e-004 3.70439084e-004 5.13320090e-004 5.39883738e-004
      7.12144130e-004 1.95800327e-004 1.37052684e-005 -2.00206468e-005
      1.75090914e-004 3.99695884e-004 1.98856884e-004 2.31287253e-004
      8.56268671e-005 1.30287182e-004 1.62550234e-004 5.68944321e-004
      8.76258011e-004 7.88177887e-004 9.67296422e-004 8.81806074e-004
      8.49912467e-004 9.60006844e-004 1.06470112e-003 9.91469598e-004
      8.12815560e-004 8.97612714e-004 4.36707633e-004 4.82432893e-004
      1.85663695e-004 2.79100845e-004 1.16048090e-004 -2.51467136e-004
      -1.48308405e-004 -3.20106628e-004 -5.39645145e-004
      -2.40075271e-004 4.20800294e-004 5.00413531e-004 1.82919335e-004
      1.53728251e-005 -1.48330160e-004 -1.07014342e-003 -2.36109900e-003
      -2.43006810e-003 -2.45010084e-003 -1.69791817e-003
      -2.64527439e-003 -2.50750477e-003 -1.23256422e-003
      -8.02129915e-004 3.15352954e-004 -2.65373907e-004 -1.50364928e-003
      -1.97419478e-003 -1.32640696e-003 -3.52925446e-004
      -1.10665285e-004 5.62957779e-004 7.37642113e-004 8.52722966e-004
      7.28046056e-004 6.99291006e-004 6.23460161e-004 5.91563177e-004
      3.20664170e-004 2.06982644e-004 5.84272784e-004 1.71617095e-004
